{"learner":{"attributes":{"best_iteration":"99","best_ntree_limit":"100","scikit_learn":"{\"n_estimators\": 100, \"objective\": \"reg:squarederror\", \"max_depth\": 3, \"max_leaves\": null, \"max_bin\": null, \"grow_policy\": null, \"learning_rate\": 0.1, \"verbosity\": null, \"booster\": null, \"tree_method\": null, \"gamma\": null, \"min_child_weight\": null, \"max_delta_step\": null, \"subsample\": null, \"sampling_method\": null, \"colsample_bytree\": null, \"colsample_bylevel\": null, \"colsample_bynode\": null, \"reg_alpha\": null, \"reg_lambda\": null, \"scale_pos_weight\": null, \"base_score\": null, \"missing\": NaN, \"num_parallel_tree\": null, \"random_state\": null, \"n_jobs\": null, \"monotone_constraints\": null, \"interaction_constraints\": null, \"importance_type\": null, \"gpu_id\": null, \"validate_parameters\": null, \"predictor\": null, \"enable_categorical\": false, \"feature_types\": null, \"max_cat_to_onehot\": null, \"max_cat_threshold\": null, \"eval_metric\": null, \"early_stopping_rounds\": null, \"callbacks\": null, \"kwargs\": {\"seed\": 42}, \"_estimator_type\": \"regressor\"}"},"feature_names":["rating","user_score","release_year","release_month","release_quarter","release_yearweek","title_len","summary_len","title_avg_wordlength","summary_avg_wordlength","title_capcount","summary_capcount","title_sentcount","summary_sentcount","title_uniq_vs_words","summary_uniq_vs_words","title_stopcount","summary_stopcount","title_stopwords_vs_words","summary_stopwords_vs_words","title_topic","summary_topic"],"feature_types":["int","float","float","float","float","float","int","int","float","float","int","int","int","int","float","float","int","int","float","float","int","int"],"gradient_booster":{"model":{"gbtree_model_param":{"num_parallel_tree":"1","num_trees":"100","size_leaf_vector":"0"},"tree_info":[0,0,0,0,0,0,0,0,0,0,0,0,0,0,0,0,0,0,0,0,0,0,0,0,0,0,0,0,0,0,0,0,0,0,0,0,0,0,0,0,0,0,0,0,0,0,0,0,0,0,0,0,0,0,0,0,0,0,0,0,0,0,0,0,0,0,0,0,0,0,0,0,0,0,0,0,0,0,0,0,0,0,0,0,0,0,0,0,0,0,0,0,0,0,0,0,0,0,0,0],"trees":[{"base_weights":[5.864192E1,5.329448E1,6.415558E1,6.0031483E1,4.8411087E1,6.9438934E1,6.1812824E1,6.24787E1,5.652158E1,6.807353E1,4.7740948E1,8.052747E1,6.87308E1,7.728E1,6.1019764E1],"categories":[],"categories_nodes":[],"categories_segments":[],"categories_sizes":[],"default_left":[1,1,1,1,1,1,1,0,0,0,0,0,0,0,0],"id":0,"left_children":[1,3,5,7,9,11,13,-1,-1,-1,-1,-1,-1,-1,-1],"loss_changes":[3.12884E5,1.76463E5,6.1024E4,1.61125E4,3.8467E4,7.1305E3,4.0241E4,0E0,0E0,0E0,0E0,0E0,0E0,0E0,0E0],"parents":[2147483647,0,0,1,1,2,2,3,3,4,4,5,5,6,6],"right_children":[2,4,6,8,10,12,14,-1,-1,-1,-1,-1,-1,-1,-1],"split_conditions":[6.45E0,9E0,8.5E0,5.5E-1,1.9745E3,1.9685E3,1.9775E3,6.24787E0,5.6521583E0,6.8073535E0,4.774095E0,8.052748E0,6.87308E0,7.728E0,6.1019764E0],"split_indices":[1,0,0,1,2,2,2,0,0,0,0,0,0,0,0],"split_type":[0,0,0,0,0,0,0,0,0,0,0,0,0,0,0],"sum_hessian":[1.0727E4,5.451E3,5.276E3,2.286E3,3.165E3,1.612E3,3.664E3,1.337E3,9.49E2,1.01E2,3.064E3,9E1,1.522E3,1.74E2,3.49E3],"tree_param":{"num_deleted":"0","num_feature":"22","num_nodes":"15","size_leaf_vector":"0"}},{"base_weights":[5.2782597E1,4.838015E1,5.825893E1,5.4383366E1,4.4168888E1,6.285239E1,5.6235485E1,5.225902E1,5.7694027E1,4.195133E1,4.8429432E1,7.2333115E1,6.2150375E1,7.0512054E1,5.5529354E1],"categories":[],"categories_nodes":[],"categories_segments":[],"categories_sizes":[],"default_left":[1,1,1,1,1,1,1,0,0,0,0,0,0,0,0],"id":1,"left_children":[1,3,5,7,9,11,13,-1,-1,-1,-1,-1,-1,-1,-1],"loss_changes":[2.55826E5,1.48096E5,4.0857E4,1.4216E4,3.10745E4,5.168E3,2.9604E4,0E0,0E0,0E0,0E0,0E0,0E0,0E0,0E0],"parents":[2147483647,0,0,1,1,2,2,3,3,4,4,5,5,6,6],"right_children":[2,4,6,8,10,12,14,-1,-1,-1,-1,-1,-1,-1,-1],"split_conditions":[6.6499996E0,9.5E0,8.5E0,2.0155E3,5.8500004E0,1.9695E3,1.9755E3,5.225902E0,5.769403E0,4.1951327E0,4.842943E0,7.2333117E0,6.215038E0,7.0512056E0,5.5529356E0],"split_indices":[1,0,0,2,1,2,2,0,0,0,0,0,0,0,0],"split_type":[0,0,0,0,0,0,0,0,0,0,0,0,0,0,0],"sum_hessian":[1.0727E4,5.952E3,4.775E3,2.449E3,3.503E3,1.451E3,3.324E3,1.502E3,9.47E2,2.311E3,1.192E3,9.3E1,1.358E3,1.52E2,3.172E3],"tree_param":{"num_deleted":"0","num_feature":"22","num_nodes":"15","size_leaf_vector":"0"}},{"base_weights":[4.7508633E1,4.3874855E1,5.296857E1,4.9235752E1,4.0227177E1,6.292462E1,5.21973E1,4.7177837E1,5.236393E1,5.836344E1,3.971196E1,5.578904E1,6.596437E1,4.9304935E1,5.5737206E1],"categories":[],"categories_nodes":[],"categories_segments":[],"categories_sizes":[],"default_left":[1,1,1,1,1,1,1,0,0,0,0,0,0,0,0],"id":2,"left_children":[1,3,5,7,9,11,13,-1,-1,-1,-1,-1,-1,-1,-1],"loss_changes":[2.10522E5,1.24088E5,2.9596E4,1.4306E4,3.3583E4,2.892E3,3.8002E4,0E0,0E0,0E0,0E0,0E0,0E0,0E0,0E0],"parents":[2147483647,0,0,1,1,2,2,3,3,4,4,5,5,6,6],"right_children":[2,4,6,8,10,12,14,-1,-1,-1,-1,-1,-1,-1,-1],"split_conditions":[6.8500004E0,9.5E0,1.9795E3,2.0155E3,1.9735E3,7.55E0,2.0085E3,4.717784E0,5.236393E0,5.8363442E0,3.971196E0,5.578904E0,6.596437E0,4.930494E0,5.5737205E0],"split_indices":[1,0,2,2,2,1,2,0,0,0,0,0,0,0,0],"split_type":[0,0,0,0,0,0,0,0,0,0,0,0,0,0,0],"sum_hessian":[1.0727E4,6.446E3,4.281E3,2.605E3,3.841E3,3.02E2,3.979E3,1.581E3,1.024E3,1.03E2,3.738E3,9.6E1,2.06E2,2.198E3,1.781E3],"tree_param":{"num_deleted":"0","num_feature":"22","num_nodes":"15","size_leaf_vector":"0"}},{"base_weights":[4.2761726E1,3.8755325E1,4.6892883E1,4.3687374E1,3.518036E1,5.097876E1,4.508186E1,4.5907104E1,4.051507E1,4.041971E1,3.3304516E1,6.0978737E1,5.051271E1,5.6675385E1,4.4487774E1],"categories":[],"categories_nodes":[],"categories_segments":[],"categories_sizes":[],"default_left":[1,1,1,1,1,1,1,0,0,0,0,0,0,0,0],"id":3,"left_children":[1,3,5,7,9,11,13,-1,-1,-1,-1,-1,-1,-1,-1],"loss_changes":[1.75744E5,9.4592E4,3.6749E4,1.42445E4,2.977E4,4.43725E3,2.27215E4,0E0,0E0,0E0,0E0,0E0,0E0,0E0,0E0],"parents":[2147483647,0,0,1,1,2,2,3,3,4,4,5,5,6,6],"right_children":[2,4,6,8,10,12,14,-1,-1,-1,-1,-1,-1,-1,-1],"split_conditions":[6.45E0,9E0,8.5E0,5.5E-1,6.5E-1,1.9645E3,1.9775E3,4.5907106E0,4.0515075E0,4.0419707E0,3.3304517E0,6.0978737E0,5.051271E0,5.6675386E0,4.4487777E0],"split_indices":[1,0,0,1,1,2,2,0,0,0,0,0,0,0,0],"split_type":[0,0,0,0,0,0,0,0,0,0,0,0,0,0,0],"sum_hessian":[1.0727E4,5.451E3,5.276E3,2.286E3,3.165E3,1.612E3,3.664E3,1.337E3,9.49E2,8.29E2,2.336E3,6.6E1,1.546E3,1.74E2,3.49E3],"tree_param":{"num_deleted":"0","num_feature":"22","num_nodes":"15","size_leaf_vector":"0"}},{"base_weights":[3.8489025E1,3.4365032E1,4.1796173E1,3.944785E1,3.0138237E1,4.5621166E1,4.011247E1,4.778647E1,3.84427E1,2.5514696E1,3.440226E1,4.404132E1,4.8208565E1,3.806955E1,4.300075E1],"categories":[],"categories_nodes":[],"categories_segments":[],"categories_sizes":[],"default_left":[1,1,1,1,1,1,1,0,0,0,0,0,0,0,0],"id":4,"left_children":[1,3,5,7,9,11,13,-1,-1,-1,-1,-1,-1,-1,-1],"loss_changes":[1.44879E5,1.015045E5,3.6482E4,1.6326E4,5.065675E4,5.27975E3,2.27855E4,0E0,0E0,0E0,0E0,0E0,0E0,0E0,0E0],"parents":[2147483647,0,0,1,1,2,2,3,3,4,4,5,5,6,6],"right_children":[2,4,6,8,10,12,14,-1,-1,-1,-1,-1,-1,-1,-1],"split_conditions":[6.1499996E0,6.5E-1,8.5E0,1.9745E3,5.25E0,7.55E0,7.55E0,4.778647E0,3.84427E0,2.5514696E0,3.440226E0,4.4041324E0,4.8208566E0,3.806955E0,4.300075E0],"split_indices":[1,1,0,2,1,1,1,0,0,0,0,0,0,0,0],"split_type":[0,0,0,0,0,0,0,0,0,0,0,0,0,0,0],"sum_hessian":[1.0727E4,4.779E3,5.948E3,2.166E3,2.613E3,1.81E3,4.138E3,2.28E2,1.938E3,1.257E3,1.356E3,1.135E3,6.75E2,2.432E3,1.706E3],"tree_param":{"num_deleted":"0","num_feature":"22","num_nodes":"15","size_leaf_vector":"0"}},{"base_weights":[3.46431E1,3.203302E1,3.896804E1,3.6167755E1,2.9275072E1,3.7610767E1,4.280796E1,3.4363007E1,3.894555E1,2.6863268E1,3.251693E1,4.700448E1,3.657978E1,4.0435513E1,4.462992E1],"categories":[],"categories_nodes":[],"categories_segments":[],"categories_sizes":[],"default_left":[1,1,1,1,1,1,1,0,0,0,0,0,0,0,0],"id":5,"left_children":[1,3,5,7,9,11,13,-1,-1,-1,-1,-1,-1,-1,-1],"loss_changes":[1.19854E5,7.5298E4,1.94095E4,1.207225E4,3.057325E4,2.7219E4,2.71675E3,0E0,0E0,0E0,0E0,0E0,0E0,0E0,0E0],"parents":[2147483647,0,0,1,1,2,2,3,3,4,4,5,5,6,6],"right_children":[2,4,6,8,10,12,14,-1,-1,-1,-1,-1,-1,-1,-1],"split_conditions":[6.95E0,9.5E0,2.0135E3,2.0155E3,5.8500004E0,1.9795E3,2.55E1,3.4363008E0,3.8945549E0,2.6863267E0,3.251693E0,4.700448E0,3.657978E0,4.0435514E0,4.462992E0],"split_indices":[1,0,2,2,1,2,5,0,0,0,0,0,0,0,0],"split_type":[0,0,0,0,0,0,0,0,0,0,0,0,0,0,0],"sum_hessian":[1.0727E4,6.695E3,4.032E3,2.674E3,4.021E3,2.987E3,1.045E3,1.629E3,1.045E3,2.311E3,1.71E3,2.91E2,2.696E3,4.64E2,5.81E2],"tree_param":{"num_deleted":"0","num_feature":"22","num_nodes":"15","size_leaf_vector":"0"}},{"base_weights":[3.11816E1,2.7796864E1,3.3895985E1,3.2254772E1,2.4090633E1,3.718968E1,3.244665E1,3.990214E1,3.1334967E1,1.3580716E1,2.5693352E1,3.583122E1,3.941752E1,4.278424E1,3.202292E1],"categories":[],"categories_nodes":[],"categories_segments":[],"categories_sizes":[],"default_left":[1,1,1,1,1,1,1,0,0,0,0,0,0,0,0],"id":6,"left_children":[1,3,5,7,9,11,13,-1,-1,-1,-1,-1,-1,-1,-1],"loss_changes":[9.7621E4,7.819825E4,2.7192E4,1.39925E4,4.3682375E4,4.0685E3,1.676E4,0E0,0E0,0E0,0E0,0E0,0E0,0E0,0E0],"parents":[2147483647,0,0,1,1,2,2,3,3,4,4,5,5,6,6],"right_children":[2,4,6,8,10,12,14,-1,-1,-1,-1,-1,-1,-1,-1],"split_conditions":[6.1499996E0,6.5E-1,8.5E0,1.9745E3,3.85E0,7.55E0,1.9755E3,3.990214E0,3.1334968E0,1.3580717E0,2.5693352E0,3.583122E0,3.941752E0,4.2784243E0,3.202292E0],"split_indices":[1,1,0,2,1,1,2,0,0,0,0,0,0,0,0],"split_type":[0,0,0,0,0,0,0,0,0,0,0,0,0,0,0],"sum_hessian":[1.0727E4,4.779E3,5.948E3,2.166E3,2.613E3,1.81E3,4.138E3,2.28E2,1.938E3,3.47E2,2.266E3,1.135E3,6.75E2,1.59E2,3.979E3],"tree_param":{"num_deleted":"0","num_feature":"22","num_nodes":"15","size_leaf_vector":"0"}},{"base_weights":[2.8065868E1,2.5895344E1,3.1662638E1,2.9481749E1,2.3503616E1,3.025193E1,3.4595085E1,2.8008144E1,3.23569E1,2.225484E1,2.8002335E1,3.8405754E1,2.9263746E1,3.3242546E1,3.769903E1],"categories":[],"categories_nodes":[],"categories_segments":[],"categories_sizes":[],"default_left":[1,1,1,1,1,1,1,0,0,0,0,0,0,0,0],"id":7,"left_children":[1,3,5,7,9,11,13,-1,-1,-1,-1,-1,-1,-1,-1],"loss_changes":[8.2933E4,5.6743E4,1.563725E4,1.04275E4,2.1972E4,2.0881E4,4.217125E3,0E0,0E0,0E0,0E0,0E0,0E0,0E0,0E0],"parents":[2147483647,0,0,1,1,2,2,3,3,4,4,5,5,6,6],"right_children":[2,4,6,8,10,12,14,-1,-1,-1,-1,-1,-1,-1,-1],"split_conditions":[6.95E0,9.5E0,2.0115E3,2.0165E3,2.0165E3,1.9795E3,9.5E0,2.8008144E0,3.2356899E0,2.2254841E0,2.8002336E0,3.8405755E0,2.9263747E0,3.3242548E0,3.7699032E0],"split_indices":[1,0,2,2,2,2,3,0,0,0,0,0,0,0,0],"split_type":[0,0,0,0,0,0,0,0,0,0,0,0,0,0,0],"sum_hessian":[1.0727E4,6.695E3,4.032E3,2.674E3,4.021E3,2.73E3,1.302E3,1.775E3,8.99E2,3.152E3,8.69E2,2.91E2,2.439E3,9.15E2,3.87E2],"tree_param":{"num_deleted":"0","num_feature":"22","num_nodes":"15","size_leaf_vector":"0"}},{"base_weights":[2.5261604E1,2.2186266E1,2.7405523E1,2.6346174E1,1.81628E1,2.6164951E1,3.0615395E1,3.3366882E1,2.5503426E1,9.074078E0,1.9607994E1,2.3972416E1,2.8582376E1,2.9737879E1,3.329991E1],"categories":[],"categories_nodes":[],"categories_segments":[],"categories_sizes":[],"default_left":[1,1,1,1,1,1,1,0,0,0,0,0,0,0,0],"id":8,"left_children":[1,3,5,7,9,11,13,-1,-1,-1,-1,-1,-1,-1,-1],"loss_changes":[7.01255E4,7.336625E4,2.43535E4,1.19705E4,2.9323188E4,2.35E4,3.144125E3,0E0,0E0,0E0,0E0,0E0,0E0,0E0,0E0],"parents":[2147483647,0,0,1,1,2,2,3,3,4,4,5,5,6,6],"right_children":[2,4,6,8,10,12,14,-1,-1,-1,-1,-1,-1,-1,-1],"split_conditions":[5.95E0,6.5E-1,2.0145E3,1.9745E3,3.75E0,7.45E0,7.55E0,3.3366883E0,2.5503426E0,9.0740776E-1,1.9607995E0,2.3972416E0,2.8582377E0,2.973788E0,3.329991E0],"split_indices":[1,1,2,2,1,1,1,0,0,0,0,0,0,0,0],"split_type":[0,0,0,0,0,0,0,0,0,0,0,0,0,0,0],"sum_hessian":[1.0727E4,4.411E3,6.316E3,2.166E3,2.245E3,4.562E3,1.754E3,2.28E2,1.938E3,3.09E2,1.936E3,2.398E3,2.164E3,1.331E3,4.23E2],"tree_param":{"num_deleted":"0","num_feature":"22","num_nodes":"15","size_leaf_vector":"0"}},{"base_weights":[2.2737337E1,2.0067081E1,2.4740023E1,2.3714273E1,1.6815735E1,2.7407623E1,2.356871E1,3.0044762E1,2.29544E1,1.0793077E1,1.8768295E1,3.819197E1,2.7168186E1,2.2554806E1,2.674655E1],"categories":[],"categories_nodes":[],"categories_segments":[],"categories_sizes":[],"default_left":[1,1,1,1,1,1,1,0,0,0,0,0,0,0,0],"id":9,"left_children":[1,3,5,7,9,11,13,-1,-1,-1,-1,-1,-1,-1,-1],"loss_changes":[5.68735E4,5.4185E4,1.849525E4,9.7345E3,2.8455562E4,3.772875E3,1.31355E4,0E0,0E0,0E0,0E0,0E0,0E0,0E0,0E0],"parents":[2147483647,0,0,1,1,2,2,3,3,4,4,5,5,6,6],"right_children":[2,4,6,8,10,12,14,-1,-1,-1,-1,-1,-1,-1,-1],"split_conditions":[6.05E0,6.5E-1,8.5E0,1.9745E3,4.45E0,1.9595E3,7.95E0,3.0044763E0,2.29544E0,1.0793078E0,1.8768295E0,3.8191972E0,2.7168186E0,2.2554805E0,2.674655E0],"split_indices":[1,1,0,2,1,2,1,0,0,0,0,0,0,0,0],"split_type":[0,0,0,0,0,0,0,0,0,0,0,0,0,0,0],"sum_hessian":[1.0727E4,4.602E3,6.125E3,2.166E3,2.436E3,1.862E3,4.263E3,2.28E2,1.938E3,5.98E2,1.838E3,3.7E1,1.825E3,3.238E3,1.025E3],"tree_param":{"num_deleted":"0","num_feature":"22","num_nodes":"15","size_leaf_vector":"0"}},{"base_weights":[2.046544E1,1.8829082E1,2.3177216E1,2.1812832E1,1.6839935E1,2.17131E1,2.5280758E1,2.033154E1,2.41003E1,1.5960952E1,2.2102852E1,2.5776623E1,1.9680462E1,2.3805393E1,2.6854853E1],"categories":[],"categories_nodes":[],"categories_segments":[],"categories_sizes":[],"default_left":[1,1,1,1,1,1,1,0,0,0,0,0,0,0,0],"id":10,"left_children":[1,3,5,7,9,11,13,-1,-1,-1,-1,-1,-1,-1,-1],"loss_changes":[4.71685E4,3.937425E4,1.1872E4,8.574E3,1.8253125E4,1.9192E4,3.190125E3,0E0,0E0,0E0,0E0,0E0,0E0,0E0,0E0],"parents":[2147483647,0,0,1,1,2,2,3,3,4,4,5,5,6,6],"right_children":[2,4,6,8,10,12,14,-1,-1,-1,-1,-1,-1,-1,-1],"split_conditions":[6.95E0,9.5E0,2.0085E3,2.0155E3,2.0185E3,1.9945E3,7.55E0,2.033154E0,2.4100301E0,1.5960952E0,2.2102852E0,2.5776622E0,1.9680462E0,2.3805394E0,2.6854854E0],"split_indices":[1,0,2,2,2,2,1,0,0,0,0,0,0,0,0],"split_type":[0,0,0,0,0,0,0,0,0,0,0,0,0,0,0],"sum_hessian":[1.0727E4,6.695E3,4.032E3,2.674E3,4.021E3,2.384E3,1.648E3,1.629E3,1.045E3,3.449E3,5.72E2,7.91E2,1.593E3,8.59E2,7.89E2],"tree_param":{"num_deleted":"0","num_feature":"22","num_nodes":"15","size_leaf_vector":"0"}},{"base_weights":[1.8420563E1,1.5963948E1,2.0032312E1,1.9378204E1,1.2414566E1,1.8954704E1,2.2794373E1,2.512393E1,1.8669657E1,3.8033154E0,1.3488345E1,2.6959015E1,1.8372564E1,2.2021267E1,2.4905882E1],"categories":[],"categories_nodes":[],"categories_segments":[],"categories_sizes":[],"default_left":[1,1,1,1,1,1,1,0,0,0,0,0,0,0,0],"id":11,"left_children":[1,3,5,7,9,11,13,-1,-1,-1,-1,-1,-1,-1,-1],"loss_changes":[4.2157E4,5.1323625E4,1.883725E4,8.353125E3,1.9264781E4,2.12325E4,2.4094375E3,0E0,0E0,0E0,0E0,0E0,0E0,0E0,0E0],"parents":[2147483647,0,0,1,1,2,2,3,3,4,4,5,5,6,6],"right_children":[2,4,6,8,10,12,14,-1,-1,-1,-1,-1,-1,-1,-1],"split_conditions":[5.8500004E0,6.5E-1,2.0145E3,1.9755E3,3.35E0,1.9775E3,9.5E0,2.512393E0,1.8669657E0,3.8033155E-1,1.3488345E0,2.6959016E0,1.8372564E0,2.2021267E0,2.4905882E0],"split_indices":[1,1,2,2,1,2,3,0,0,0,0,0,0,0,0],"split_type":[0,0,0,0,0,0,0,0,0,0,0,0,0,0,0],"sum_hessian":[1.0727E4,4.254E3,6.473E3,2.166E3,2.088E3,4.662E3,1.811E3,2.34E2,1.932E3,2.32E2,1.856E3,3.13E2,4.349E3,1.334E3,4.77E2],"tree_param":{"num_deleted":"0","num_feature":"22","num_nodes":"15","size_leaf_vector":"0"}},{"base_weights":[1.6579935E1,1.4368988E1,1.8030506E1,1.7442406E1,1.1173937E1,1.7060205E1,2.0517525E1,2.3337276E1,1.6867346E1,9.828862E0,1.6846489E1,2.6494028E1,1.665136E1,2.0124676E1,2.4266708E1],"categories":[],"categories_nodes":[],"categories_segments":[],"categories_sizes":[],"default_left":[1,1,1,1,1,1,1,0,0,0,0,0,0,0,0],"id":12,"left_children":[1,3,5,7,9,11,13,-1,-1,-1,-1,-1,-1,-1,-1],"loss_changes":[3.414675E4,4.1588062E4,1.527275E4,6.9523125E3,1.5773484E4,1.7544E4,2.1805E3,0E0,0E0,0E0,0E0,0E0,0E0,0E0,0E0],"parents":[2147483647,0,0,1,1,2,2,3,3,4,4,5,5,6,6],"right_children":[2,4,6,8,10,12,14,-1,-1,-1,-1,-1,-1,-1,-1],"split_conditions":[5.8500004E0,6.5E-1,2.0145E3,1.9685E3,2.0185E3,1.9695E3,2.0215E3,2.3337276E0,1.6867346E0,9.8288625E-1,1.6846489E0,2.6494029E0,1.665136E0,2.0124676E0,2.4266708E0],"split_indices":[1,1,2,2,2,2,2,0,0,0,0,0,0,0,0],"split_type":[0,0,0,0,0,0,0,0,0,0,0,0,0,0,0],"sum_hessian":[1.0727E4,4.254E3,6.473E3,2.166E3,2.088E3,4.662E3,1.811E3,1.89E2,1.977E3,1.69E3,3.98E2,1.91E2,4.471E3,1.645E3,1.66E2],"tree_param":{"num_deleted":"0","num_feature":"22","num_nodes":"15","size_leaf_vector":"0"}},{"base_weights":[1.4923382E1,1.3623056E1,1.7078613E1,1.6175295E1,1.1922195E1,1.6711231E1,2.513046E1,1.5059651E1,1.835886E1,9.738961E0,1.353932E1,1.5255387E1,1.8708437E1,2.2419651E1,3.311635E1],"categories":[],"categories_nodes":[],"categories_segments":[],"categories_sizes":[],"default_left":[1,1,1,1,1,1,1,0,0,0,0,0,0,0,0],"id":13,"left_children":[1,3,5,7,9,11,13,-1,-1,-1,-1,-1,-1,-1,-1],"loss_changes":[2.98325E4,2.88745E4,1.1510125E4,6.2400625E3,1.40680625E4,1.0938E4,3.024336E3,0E0,0E0,0E0,0E0,0E0,0E0,0E0,0E0],"parents":[2147483647,0,0,1,1,2,2,3,3,4,4,5,5,6,6],"right_children":[2,4,6,8,10,12,14,-1,-1,-1,-1,-1,-1,-1,-1],"split_conditions":[6.95E0,9.5E0,8.55E0,2.0165E3,1.15E1,2.0085E3,8.75E0,1.5059651E0,1.835886E0,9.7389615E-1,1.353932E0,1.5255388E0,1.8708438E0,2.241965E0,3.3116348E0],"split_indices":[1,0,1,2,0,2,1,0,0,0,0,0,0,0,0],"split_type":[0,0,0,0,0,0,0,0,0,0,0,0,0,0,0],"sum_hessian":[1.0727E4,6.695E3,4.032E3,2.674E3,4.021E3,3.859E3,1.73E2,1.775E3,8.99E2,1.714E3,2.307E3,2.237E3,1.622E3,1.32E2,4.1E1],"tree_param":{"num_deleted":"0","num_feature":"22","num_nodes":"15","size_leaf_vector":"0"}},{"base_weights":[1.3432406E1,1.1549322E1,1.4667977E1,1.4244091E1,8.748406E0,1.6787403E1,1.3747361E1,1.9010746E1,1.36572275E1,1.040555E0,9.710809E0,1.5470513E1,1.8179897E1,1.119487E1,1.4730774E1],"categories":[],"categories_nodes":[],"categories_segments":[],"categories_sizes":[],"default_left":[1,1,1,1,1,1,1,0,0,0,0,0,0,0,0],"id":14,"left_children":[1,3,5,7,9,11,13,-1,-1,-1,-1,-1,-1,-1,-1],"loss_changes":[2.479125E4,3.1991438E4,1.2401E4,5.8022812E3,1.5486203E4,3.305625E3,1.11785E4,0E0,0E0,0E0,0E0,0E0,0E0,0E0,0E0],"parents":[2147483647,0,0,1,1,2,2,3,3,4,4,5,5,6,6],"right_children":[2,4,6,8,10,12,14,-1,-1,-1,-1,-1,-1,-1,-1],"split_conditions":[5.8500004E0,6.5E-1,8.5E0,1.9755E3,3.35E0,3.795E2,4.5E0,1.9010746E0,1.3657228E0,1.040555E-1,9.710809E-1,1.5470513E0,1.8179897E0,1.119487E0,1.4730774E0],"split_indices":[1,1,0,2,1,7,3,0,0,0,0,0,0,0,0],"split_type":[0,0,0,0,0,0,0,0,0,0,0,0,0,0,0],"sum_hessian":[1.0727E4,4.254E3,6.473E3,2.166E3,2.088E3,1.955E3,4.518E3,2.34E2,1.932E3,2.32E2,1.856E3,1.011E3,9.44E2,1.26E3,3.258E3],"tree_param":{"num_deleted":"0","num_feature":"22","num_nodes":"15","size_leaf_vector":"0"}},{"base_weights":[1.2090126E1,1.1317717E1,1.4791727E1,1.029223E1,1.4319287E1,2.0812437E1,1.4178653E1,1.5681442E1,9.794137E0,1.3791318E1,1.7544159E1,2.4898396E1,1.8311079E1,1.2685001E1,1.7091389E1],"categories":[],"categories_nodes":[],"categories_segments":[],"categories_sizes":[],"default_left":[1,1,1,1,1,1,1,0,0,0,0,0,0,0,0],"id":15,"left_children":[1,3,5,7,9,11,13,-1,-1,-1,-1,-1,-1,-1,-1],"loss_changes":[2.2219125E4,2.5545375E4,8.497219E3,1.6556375E4,3.3726875E3,1.7721406E3,9.20225E3,0E0,0E0,0E0,0E0,0E0,0E0,0E0,0E0],"parents":[2147483647,0,0,1,1,2,2,3,3,4,4,5,5,6,6],"right_children":[2,4,6,8,10,12,14,-1,-1,-1,-1,-1,-1,-1,-1],"split_conditions":[7.55E0,2.0165E3,1.9805E3,1.9815E3,6.5121727E0,1.9605E3,2.0095E3,1.5681442E0,9.794137E-1,1.3791318E0,1.7544159E0,2.4898396E0,1.831108E0,1.2685002E0,1.7091389E0],"split_indices":[1,2,2,2,9,2,2,0,0,0,0,0,0,0,0],"split_type":[0,0,0,0,0,0,0,0,0,0,0,0,0,0,0],"sum_hessian":[1.0727E4,8.346E3,2.381E3,6.224E3,2.122E3,2.17E2,2.164E3,5.24E2,5.7E3,1.828E3,2.94E2,7.9E1,1.38E2,1.434E3,7.3E2],"tree_param":{"num_deleted":"0","num_feature":"22","num_nodes":"15","size_leaf_vector":"0"}},{"base_weights":[1.0882324E1,1.2711927E1,9.836276E0,1.3579224E1,1.12569475E1,6.68356E0,1.1046424E1,1.309985E1,1.6655588E1,1.7403168E1,1.048297E1,1.0178243E1,3.9613972E0,9.199145E0,1.2120311E1],"categories":[],"categories_nodes":[],"categories_segments":[],"categories_sizes":[],"default_left":[1,1,1,1,1,1,1,0,0,0,0,0,0,0,0],"id":16,"left_children":[1,3,5,7,9,11,13,-1,-1,-1,-1,-1,-1,-1,-1],"loss_changes":[2.040675E4,4.76725E3,2.5984375E4,3.3772188E3,6.772375E3,1.8006023E4,9.676375E3,0E0,0E0,0E0,0E0,0E0,0E0,0E0,0E0],"parents":[2147483647,0,0,1,1,2,2,3,3,4,4,5,5,6,6],"right_children":[2,4,6,8,10,12,14,-1,-1,-1,-1,-1,-1,-1,-1],"split_conditions":[8.5E0,8.7428164E-1,5.45E0,6.53306E0,1.9685E3,6.5E-1,2.25E1,1.309985E0,1.6655588E0,1.7403167E0,1.048297E0,1.0178243E0,3.961397E-1,9.1991454E-1,1.2120311E0],"split_indices":[0,15,1,9,2,1,5,0,0,0,0,0,0,0,0],"split_type":[0,0,0,0,0,0,0,0,0,0,0,0,0,0,0],"sum_hessian":[1.0727E4,3.898E3,6.829E3,2.437E3,1.461E3,1.896E3,4.933E3,2.113E3,3.24E2,1.61E2,1.3E3,8.29E2,1.067E3,1.817E3,3.116E3],"tree_param":{"num_deleted":"0","num_feature":"22","num_nodes":"15","size_leaf_vector":"0"}},{"base_weights":[9.794958E0,9.015099E0,1.1863538E1,8.019726E0,1.185871E1,1.1654863E1,2.5954784E1,1.3129296E1,7.582505E0,1.0543765E1,1.3159326E1,1.46650915E1,1.08222475E1,-1.5926697E1,2.736474E1],"categories":[],"categories_nodes":[],"categories_segments":[],"categories_sizes":[],"default_left":[1,1,1,1,1,1,1,0,0,0,0,0,0,0,0],"id":17,"left_children":[1,3,5,7,9,11,13,-1,-1,-1,-1,-1,-1,-1,-1],"loss_changes":[1.71995E4,2.1968312E4,8.324906E3,1.28063125E4,3.3142188E3,7.0922188E3,2.9159746E3,0E0,0E0,0E0,0E0,0E0,0E0,0E0,0E0],"parents":[2147483647,0,0,1,1,2,2,3,3,4,4,5,5,6,6],"right_children":[2,4,6,8,10,12,14,-1,-1,-1,-1,-1,-1,-1,-1],"split_conditions":[7.3500004E0,2.0165E3,8.75E0,1.9805E3,2.0195E3,1.9945E3,1.01E2,1.3129296E0,7.5825053E-1,1.0543765E0,1.3159326E0,1.4665092E0,1.0822247E0,-1.5926697E0,2.736474E0],"split_indices":[1,2,1,2,2,2,7,0,0,0,0,0,0,0,0],"split_type":[0,0,0,0,0,0,0,0,0,0,0,0,0,0,0],"sum_hessian":[1.0727E4,7.794E3,2.933E3,5.776E3,2.018E3,2.892E3,4.1E1,4.53E2,5.323E3,1.008E3,1.01E3,6.23E2,2.269E3,1E0,4E1],"tree_param":{"num_deleted":"0","num_feature":"22","num_nodes":"15","size_leaf_vector":"0"}},{"base_weights":[8.81622E0,1.0458585E1,7.8773627E0,9.394927E0,1.1510371E1,5.1266837E0,8.933334E0,1.0312977E1,7.3411183E0,1.0406853E1,1.2783043E1,8.266062E0,2.6821043E0,8.279952E0,1.1661138E1],"categories":[],"categories_nodes":[],"categories_segments":[],"categories_sizes":[],"default_left":[1,1,1,1,1,1,1,0,0,0,0,0,0,0,0],"id":18,"left_children":[1,3,5,7,9,11,13,-1,-1,-1,-1,-1,-1,-1,-1],"loss_changes":[1.6459625E4,4.2538125E3,1.9792875E4,3.5897031E3,2.6140156E3,1.4536277E4,8.6973125E3,0E0,0E0,0E0,0E0,0E0,0E0,0E0,0E0],"parents":[2147483647,0,0,1,1,2,2,3,3,4,4,5,5,6,6],"right_children":[2,4,6,8,10,12,14,-1,-1,-1,-1,-1,-1,-1,-1],"split_conditions":[8.5E0,5.8500004E0,5.45E0,8.5E-1,3.945E2,6.5E-1,1.05E1,1.0312977E0,7.3411185E-1,1.0406853E0,1.2783043E0,8.266062E-1,2.6821044E-1,8.2799524E-1,1.1661137E0],"split_indices":[0,1,1,1,7,1,3,0,0,0,0,0,0,0,0],"split_type":[0,0,0,0,0,0,0,0,0,0,0,0,0,0,0],"sum_hessian":[1.0727E4,3.898E3,6.829E3,1.943E3,1.955E3,1.896E3,4.933E3,1.34E3,6.03E2,1.052E3,9.03E2,8.29E2,1.067E3,3.983E3,9.5E2],"tree_param":{"num_deleted":"0","num_feature":"22","num_nodes":"15","size_leaf_vector":"0"}},{"base_weights":[7.935267E0,7.539126E0,1.1263675E1,6.76198E0,9.979815E0,4.0273156E0,1.2088162E1,1.0693628E1,6.283567E0,9.145204E0,1.1697851E1,-1.7737253E1,4.9465747E0,1.1617734E1,2.3647472E1],"categories":[],"categories_nodes":[],"categories_segments":[],"categories_sizes":[],"default_left":[1,1,1,1,1,1,1,0,0,0,0,0,0,0,0],"id":19,"left_children":[1,3,5,7,9,11,13,-1,-1,-1,-1,-1,-1,-1,-1],"loss_changes":[1.40601875E4,1.81225E4,6.746922E3,1.36205E4,3.2110469E3,2.4485972E3,5.2827344E3,0E0,0E0,0E0,0E0,0E0,0E0,0E0,0E0],"parents":[2147483647,0,0,1,1,2,2,3,3,4,4,5,5,6,6],"right_children":[2,4,6,8,10,12,14,-1,-1,-1,-1,-1,-1,-1,-1],"split_conditions":[8.05E0,2.0165E3,2.5E0,1.9845E3,2.0205E3,8.8E1,8.75E0,1.0693629E0,6.283567E-1,9.145204E-1,1.1697851E0,-1.7737254E0,4.946575E-1,1.1617734E0,2.3647473E0],"split_indices":[1,2,3,2,2,7,1,0,0,0,0,0,0,0,0],"split_type":[0,0,0,0,0,0,0,0,0,0,0,0,0,0,0],"sum_hessian":[1.0727E4,9.589E3,1.138E3,7.276E3,2.313E3,1.17E2,1.021E3,7.87E2,6.489E3,1.561E3,7.52E2,4E0,1.13E2,9.83E2,3.8E1],"tree_param":{"num_deleted":"0","num_feature":"22","num_nodes":"15","size_leaf_vector":"0"}},{"base_weights":[7.142302E0,8.609688E0,6.303579E0,9.375312E0,7.327061E0,3.8561757E0,7.243267E0,4.9506826E0,9.655E0,1.2940802E1,6.764822E0,6.659672E0,1.6738179E0,5.768777E0,8.306077E0],"categories":[],"categories_nodes":[],"categories_segments":[],"categories_sizes":[],"default_left":[1,1,1,1,1,1,1,0,0,0,0,0,0,0,0],"id":20,"left_children":[1,3,5,7,9,11,13,-1,-1,-1,-1,-1,-1,-1,-1],"loss_changes":[1.3149E4,3.7601562E3,1.5679656E4,2.9692812E3,4.526914E3,1.1595139E4,7.684172E3,0E0,0E0,0E0,0E0,0E0,0E0,0E0,0E0],"parents":[2147483647,0,0,1,1,2,2,3,3,4,4,5,5,6,6],"right_children":[2,4,6,8,10,12,14,-1,-1,-1,-1,-1,-1,-1,-1],"split_conditions":[8.5E0,8.7428164E-1,5.45E0,3.5E0,1.9645E3,6.5E-1,1.15E1,4.9506828E-1,9.655E-1,1.2940801E0,6.764822E-1,6.6596717E-1,1.673818E-1,5.768777E-1,8.306077E-1],"split_indices":[0,15,1,5,2,1,0,0,0,0,0,0,0,0,0],"split_type":[0,0,0,0,0,0,0,0,0,0,0,0,0,0,0],"sum_hessian":[1.0727E4,3.898E3,6.829E3,2.437E3,1.461E3,1.896E3,4.933E3,1.46E2,2.291E3,1.31E2,1.33E3,8.29E2,1.067E3,2.069E3,2.864E3],"tree_param":{"num_deleted":"0","num_feature":"22","num_nodes":"15","size_leaf_vector":"0"}},{"base_weights":[6.428601E0,5.767834E0,8.117066E0,5.018871E0,7.745599E0,9.751529E0,7.0810823E0,1.0135152E1,4.4873943E0,6.0665417E0,8.896284E0,9.437939E0,1.569269E1,6.211116E0,1.1156662E1],"categories":[],"categories_nodes":[],"categories_segments":[],"categories_sizes":[],"default_left":[1,1,1,1,1,1,1,0,0,0,0,0,0,0,0],"id":21,"left_children":[1,3,5,7,9,11,13,-1,-1,-1,-1,-1,-1,-1,-1],"loss_changes":[1.19221875E4,1.1387641E4,5.036172E3,1.5176531E4,4.0362266E3,2.0261094E3,6.4865547E3,0E0,0E0,0E0,0E0,0E0,0E0,0E0,0E0],"parents":[2147483647,0,0,1,1,2,2,3,3,4,4,5,5,6,6],"right_children":[2,4,6,8,10,12,14,-1,-1,-1,-1,-1,-1,-1,-1],"split_conditions":[6.314888E0,2.0155E3,8.675585E-1,1.9805E3,5.6499996E0,2.0215E3,7.8500004E0,1.0135152E0,4.4873944E-1,6.0665417E-1,8.896284E-1,9.437939E-1,1.5692691E0,6.211116E-1,1.1156663E0],"split_indices":[9,2,15,2,1,2,1,0,0,0,0,0,0,0,0],"split_type":[0,0,0,0,0,0,0,0,0,0,0,0,0,0,0],"sum_hessian":[1.0727E4,7.713E3,3.014E3,5.597E3,2.116E3,1.166E3,1.848E3,5.25E2,5.072E3,8.63E2,1.253E3,1.11E3,5.6E1,1.525E3,3.23E2],"tree_param":{"num_deleted":"0","num_feature":"22","num_nodes":"15","size_leaf_vector":"0"}},{"base_weights":[5.7864127E0,4.9709725E0,7.012792E0,4.4586053E0,8.228632E0,6.7453637E0,1.328779E1,6.0354943E0,3.4872367E0,1.4465193E1,7.651425E0,5.373893E0,8.132344E0,1.1407873E1,1.8924486E1],"categories":[],"categories_nodes":[],"categories_segments":[],"categories_sizes":[],"default_left":[1,1,1,1,1,1,1,0,0,0,0,0,0,0,0],"id":22,"left_children":[1,3,5,7,9,11,13,-1,-1,-1,-1,-1,-1,-1,-1],"loss_changes":[1.06935625E4,1.0724109E4,7.0960312E3,8.515352E3,3.0391406E3,7.772453E3,1.6279062E3,0E0,0E0,0E0,0E0,0E0,0E0,0E0,0E0],"parents":[2147483647,0,0,1,1,2,2,3,3,4,4,5,5,6,6],"right_children":[2,4,6,8,10,12,14,-1,-1,-1,-1,-1,-1,-1,-1],"split_conditions":[6.8500004E0,2.0195E3,8.55E0,9.5E0,7.39961E-1,2.0065E3,8.75E0,6.035494E-1,3.4872368E-1,1.4465193E0,7.651425E-1,5.373893E-1,8.1323445E-1,1.1407874E0,1.8924487E0],"split_indices":[1,2,1,0,15,2,1,0,0,0,0,0,0,0,0],"split_type":[0,0,0,0,0,0,0,0,0,0,0,0,0,0,0],"sum_hessian":[1.0727E4,6.446E3,4.281E3,5.572E3,8.74E2,4.108E3,1.73E2,2.122E3,3.45E3,7.2E1,8.02E2,2.068E3,2.04E3,1.32E2,4.1E1],"tree_param":{"num_deleted":"0","num_feature":"22","num_nodes":"15","size_leaf_vector":"0"}},{"base_weights":[5.2084746E0,1.0344927E1,5.0224543E0,3.3305917E0,1.2122641E1,3.6102946E0,5.759244E0,6.2247643E0,-4.6836195E0,1.665585E1,8.885667E0,5.1265635E0,2.3092017E0,5.396114E0,9.378308E0],"categories":[],"categories_nodes":[],"categories_segments":[],"categories_sizes":[],"default_left":[1,1,1,1,1,1,1,0,0,0,0,0,0,0,0],"id":23,"left_children":[1,3,5,7,9,11,13,-1,-1,-1,-1,-1,-1,-1,-1],"loss_changes":[1.0198469E4,4.623207E3,1.0753219E4,1.8151318E3,4.2248164E3,6.997551E3,8.889844E3,0E0,0E0,0E0,0E0,0E0,0E0,0E0,0E0],"parents":[2147483647,0,0,1,1,2,2,3,3,4,4,5,5,6,6],"right_children":[2,4,6,8,10,12,14,-1,-1,-1,-1,-1,-1,-1,-1],"split_conditions":[1.9685E3,9.625E2,1.95E1,3.5E0,1.9535E3,1.05E1,8.15E0,6.2247646E-1,-4.6836194E-1,1.6655849E0,8.885667E-1,5.126564E-1,2.3092018E-1,5.396114E-1,9.3783087E-1],"split_indices":[2,2,5,13,2,0,1,0,0,0,0,0,0,0,0],"split_type":[0,0,0,0,0,0,0,0,0,0,0,0,0,0,0],"sum_hessian":[1.0727E4,3.73E2,1.0354E4,7.6E1,2.97E2,3.552E3,6.802E3,5.6E1,2E1,1.22E2,1.75E2,1.639E3,1.913E3,6.184E3,6.18E2],"tree_param":{"num_deleted":"0","num_feature":"22","num_nodes":"15","size_leaf_vector":"0"}},{"base_weights":[4.6880865E0,4.2243795E0,6.6656485E0,2.7048872E0,4.915137E0,8.63078E0,5.6846824E0,4.8556867E0,-8.047381E-1,3.6156354E0,6.0919933E0,7.9750013E0,1.2758865E1,4.9589972E0,9.0535755E0],"categories":[],"categories_nodes":[],"categories_segments":[],"categories_sizes":[],"default_left":[1,1,1,1,1,1,1,0,0,0,0,0,0,0,0],"id":24,"left_children":[1,3,5,7,9,11,13,-1,-1,-1,-1,-1,-1,-1,-1],"loss_changes":[9.809531E3,9.110875E3,3.8757969E3,2.0528277E4,9.115703E3,1.7282539E3,3.282418E3,0E0,0E0,0E0,0E0,0E0,0E0,0E0,0E0],"parents":[2147483647,0,0,1,1,2,2,3,3,4,4,5,5,6,6],"right_children":[2,4,6,8,10,12,14,-1,-1,-1,-1,-1,-1,-1,-1],"split_conditions":[6.463189E0,5.25E0,8.675585E-1,6.5E-1,2.0085E3,2.0195E3,7.8500004E0,4.8556867E-1,-8.047381E-2,3.6156353E-1,6.0919935E-1,7.9750013E-1,1.2758865E0,4.9589974E-1,9.0535754E-1],"split_indices":[9,1,15,1,2,2,1,0,0,0,0,0,0,0,0],"split_type":[0,0,0,0,0,0,0,0,0,0,0,0,0,0,0],"sum_hessian":[1.0727E4,8.692E3,2.035E3,2.718E3,5.974E3,6.75E2,1.36E3,1.685E3,1.033E3,2.841E3,3.133E3,5.85E2,9E1,1.121E3,2.39E2],"tree_param":{"num_deleted":"0","num_feature":"22","num_nodes":"15","size_leaf_vector":"0"}},{"base_weights":[4.21973E0,3.2260137E0,5.0168657E0,9.0546465E0,2.9693992E0,3.8808227E0,5.79762E0,2.856146E0,1.0482173E1,2.1675618E0,5.0931153E0,5.317558E0,2.4943776E0,5.210687E0,7.7213054E0],"categories":[],"categories_nodes":[],"categories_segments":[],"categories_sizes":[],"default_left":[1,1,1,1,1,1,1,0,0,0,0,0,0,0,0],"id":25,"left_children":[1,3,5,7,9,11,13,-1,-1,-1,-1,-1,-1,-1,-1],"loss_changes":[8.48175E3,7.119625E3,5.2558594E3,1.7486152E3,7.7847227E3,4.821215E3,3.93975E3,0E0,0E0,0E0,0E0,0E0,0E0,0E0,0E0],"parents":[2147483647,0,0,1,1,2,2,3,3,4,4,5,5,6,6],"right_children":[2,4,6,8,10,12,14,-1,-1,-1,-1,-1,-1,-1,-1],"split_conditions":[5.9899473E0,1.9685E3,2.35E1,9.63E2,2.0155E3,1.05E1,7.55E0,2.856146E-1,1.0482173E0,2.1675618E-1,5.0931156E-1,5.317558E-1,2.4943776E-1,5.2106875E-1,7.7213055E-1],"split_indices":[9,2,5,2,2,0,1,0,0,0,0,0,0,0,0],"split_type":[0,0,0,0,0,0,0,0,0,0,0,0,0,0,0],"sum_hessian":[1.0727E4,4.777E3,5.95E3,2E2,4.577E3,2.426E3,3.524E3,3.8E1,1.62E2,3.324E3,1.253E3,1.19E3,1.236E3,2.703E3,8.21E2],"tree_param":{"num_deleted":"0","num_feature":"22","num_nodes":"15","size_leaf_vector":"0"}},{"base_weights":[3.7981422E0,6.564295E0,3.5358436E0,9.017147E0,5.616457E0,2.798853E0,4.9968586E0,2.1102135E0,1.1905637E1,7.781913E0,3.911626E0,2.6411266E0,1.0778113E1,4.8864703E0,1.7662842E1],"categories":[],"categories_nodes":[],"categories_segments":[],"categories_sizes":[],"default_left":[1,1,1,1,1,1,1,0,0,0,0,0,0,0,0],"id":26,"left_children":[1,3,5,7,9,11,13,-1,-1,-1,-1,-1,-1,-1,-1],"loss_changes":[7.760578E3,2.1068672E3,1.0539297E4,5.1021836E3,2.4504062E3,8.173426E3,4.5066875E3,0E0,0E0,0E0,0E0,0E0,0E0,0E0,0E0],"parents":[2147483647,0,0,1,1,2,2,3,3,4,4,5,5,6,6],"right_children":[2,4,6,8,10,12,14,-1,-1,-1,-1,-1,-1,-1,-1],"split_conditions":[1.9845E3,1.9595E3,2.0145E3,9.625E2,9.177928E-1,8.55E0,7.5E0,2.1102135E-1,1.1905637E0,7.7819127E-1,3.911626E-1,2.6411268E-1,1.0778114E0,4.8864704E-1,1.7662842E0],"split_indices":[2,2,2,2,15,1,10,0,0,0,0,0,0,0,0],"split_type":[0,0,0,0,0,0,0,0,0,0,0,0,0,0,0],"sum_hessian":[1.0727E4,9.27E2,9.8E3,2.56E2,6.71E2,6.516E3,3.284E3,7.6E1,1.8E2,2.94E2,3.77E2,6.391E3,1.25E2,3.257E3,2.7E1],"tree_param":{"num_deleted":"0","num_feature":"22","num_nodes":"15","size_leaf_vector":"0"}},{"base_weights":[3.418902E0,3.0482047E0,5.317646E0,1.7072406E0,3.7293248E0,7.2500887E0,4.4195733E0,3.5651584E0,-8.1958413E-1,3.3145862E0,6.239407E0,6.64126E0,1.1233617E1,4.113713E0,1.1359866E1],"categories":[],"categories_nodes":[],"categories_segments":[],"categories_sizes":[],"default_left":[1,1,1,1,1,1,1,0,0,0,0,0,0,0,0],"id":27,"left_children":[1,3,5,7,9,11,13,-1,-1,-1,-1,-1,-1,-1,-1],"loss_changes":[7.534797E3,8.19375E3,3.0067734E3,1.420888E4,6.1765625E3,1.2690039E3,2.4963418E3,0E0,0E0,0E0,0E0,0E0,0E0,0E0,0E0],"parents":[2147483647,0,0,1,1,2,2,3,3,4,4,5,5,6,6],"right_children":[2,4,6,8,10,12,14,-1,-1,-1,-1,-1,-1,-1,-1],"split_conditions":[6.521553E0,5.45E0,8.677858E-1,6.5E-1,4.55E1,2.0195E3,1.35E1,3.5651585E-1,-8.195841E-2,3.3145863E-1,6.239407E-1,6.6412604E-1,1.1233617E0,4.113713E-1,1.1359867E0],"split_indices":[9,1,15,1,5,2,0,0,0,0,0,0,0,0,0],"split_type":[0,0,0,0,0,0,0,0,0,0,0,0,0,0,0],"sum_hessian":[1.0727E4,8.977E3,1.75E3,3.025E3,5.952E3,5.53E2,1.197E3,1.743E3,1.282E3,5.11E3,8.42E2,4.82E2,7.1E1,1.148E3,4.9E1],"tree_param":{"num_deleted":"0","num_feature":"22","num_nodes":"15","size_leaf_vector":"0"}},{"base_weights":[3.0774372E0,9.8215556E-1,3.3980196E0,3.0564668E0,-1.0418019E0,3.0704446E0,6.04959E0,1.5017161E0,5.1819944E0,9.351504E0,-1.9297549E0,2.4700828E0,4.598703E0,5.686553E0,1.5054176E1],"categories":[],"categories_nodes":[],"categories_segments":[],"categories_sizes":[],"default_left":[1,1,1,1,1,1,1,0,0,0,0,0,0,0,0],"id":28,"left_children":[1,3,5,7,9,11,13,-1,-1,-1,-1,-1,-1,-1,-1],"loss_changes":[7.202758E3,5.985787E3,8.0627734E3,2.3187021E3,6.6812163E3,7.5883594E3,3.2553125E3,0E0,0E0,0E0,0E0,0E0,0E0,0E0,0E0],"parents":[2147483647,0,0,1,1,2,2,3,3,4,4,5,5,6,6],"right_children":[2,4,6,8,10,12,14,-1,-1,-1,-1,-1,-1,-1,-1],"split_conditions":[2.5E0,1.05E1,8.05E0,6.1455026E0,1.9855E3,2.0155E3,8.75E0,1.5017162E-1,5.1819944E-1,9.3515044E-1,-1.9297549E-1,2.4700828E-1,4.598703E-1,5.686553E-1,1.5054177E0],"split_indices":[3,0,1,9,2,2,1,0,0,0,0,0,0,0,0],"split_type":[0,0,0,0,0,0,0,0,0,0,0,0,0,0,0],"sum_hessian":[1.0727E4,1.424E3,9.303E3,7.03E2,7.21E2,8.282E3,1.021E3,4.07E2,2.96E2,5.6E1,6.65E2,5.948E3,2.334E3,9.83E2,3.8E1],"tree_param":{"num_deleted":"0","num_feature":"22","num_nodes":"15","size_leaf_vector":"0"}},{"base_weights":[2.7700837E0,1.8414649E0,3.4019191E0,7.7453904E0,1.6503522E0,2.039611E0,3.9323986E0,2.053519E0,9.8519125E0,3.3331404E0,9.941255E-1,7.001881E0,1.6178452E0,3.4837399E0,5.4374013E0],"categories":[],"categories_nodes":[],"categories_segments":[],"categories_sizes":[],"default_left":[1,1,1,1,1,1,1,0,0,0,0,0,0,0,0],"id":29,"left_children":[1,3,5,7,9,11,13,-1,-1,-1,-1,-1,-1,-1,-1],"loss_changes":[6.2882266E3,4.890872E3,4.6048203E3,1.6104165E3,4.6468555E3,3.737086E3,3.082414E3,0E0,0E0,0E0,0E0,0E0,0E0,0E0,0E0],"parents":[2147483647,0,0,1,1,2,2,3,3,4,4,5,5,6,6],"right_children":[2,4,6,8,10,12,14,-1,-1,-1,-1,-1,-1,-1,-1],"split_conditions":[5.9431357E0,1.9595E3,1.65E1,9.63E2,7.897986E-1,1.9855E3,7.55E0,2.053519E-1,9.851913E-1,3.3331403E-1,9.941255E-2,7.001881E-1,1.6178451E-1,3.4837398E-1,5.4374015E-1],"split_indices":[9,2,5,2,15,2,1,0,0,0,0,0,0,0,0],"split_type":[0,0,0,0,0,0,0,0,0,0,0,0,0,0,0],"sum_hessian":[1.0727E4,4.345E3,6.382E3,1.35E2,4.21E3,1.79E3,4.592E3,3.7E1,9.8E1,1.18E3,3.03E3,1.39E2,1.651E3,3.54E3,1.052E3],"tree_param":{"num_deleted":"0","num_feature":"22","num_nodes":"15","size_leaf_vector":"0"}},{"base_weights":[2.4933908E0,2.232321E0,4.6469226E0,1.9204987E0,4.6144648E0,9.222883E0,4.2249894E0,3.0114362E0,1.3138242E0,4.30164E0,1.2642986E1,5.8603506E0,1.11112585E1,3.3304098E0,5.891512E0],"categories":[],"categories_nodes":[],"categories_segments":[],"categories_sizes":[],"default_left":[1,1,1,1,1,1,1,0,0,0,0,0,0,0,0],"id":30,"left_children":[1,3,5,7,9,11,13,-1,-1,-1,-1,-1,-1,-1,-1],"loss_changes":[6.0211406E3,7.099793E3,2.1987734E3,5.5978887E3,2.7258652E3,5.5080664E2,1.5651387E3,0E0,0E0,0E0,0E0,0E0,0E0,0E0,0E0],"parents":[2147483647,0,0,1,1,2,2,3,3,4,4,5,5,6,6],"right_children":[2,4,6,8,10,12,14,-1,-1,-1,-1,-1,-1,-1,-1],"split_conditions":[2.0195E3,8.05E0,7.39961E-1,9.5E0,8.75E0,4.004831E-1,2.0215E3,3.0114362E-1,1.3138242E-1,4.30164E-1,1.2642987E0,5.860351E-1,1.1111258E0,3.3304098E-1,5.891512E-1],"split_indices":[2,1,15,0,1,19,2,0,0,0,0,0,0,0,0],"split_type":[0,0,0,0,0,0,0,0,0,0,0,0,0,0,0],"sum_hessian":[1.0727E4,9.569E3,1.158E3,8.463E3,1.106E3,9.6E1,1.062E3,3.023E3,5.44E3,1.066E3,4E1,3.6E1,6E1,6.93E2,3.69E2],"tree_param":{"num_deleted":"0","num_feature":"22","num_nodes":"15","size_leaf_vector":"0"}},{"base_weights":[2.2444947E0,1.9766396E0,4.2026653E0,7.2200274E-1,2.5491583E0,3.9200535E0,1.1133037E1,2.433848E0,-2.1194167E0,1.4144378E0,3.3452961E0,4.822759E0,1.6082435E0,1.453162E0,1.4151599E1],"categories":[],"categories_nodes":[],"categories_segments":[],"categories_sizes":[],"default_left":[1,1,1,1,1,1,1,0,0,0,0,0,0,0,0],"id":31,"left_children":[1,3,5,7,9,11,13,-1,-1,-1,-1,-1,-1,-1,-1],"loss_changes":[5.618586E3,6.7782227E3,2.482959E3,1.4397942E4,5.850164E3,2.5820645E3,1.4404004E3,0E0,0E0,0E0,0E0,0E0,0E0,0E0,0E0],"parents":[2147483647,0,0,1,1,2,2,3,3,4,4,5,5,6,6],"right_children":[2,4,6,8,10,12,14,-1,-1,-1,-1,-1,-1,-1,-1],"split_conditions":[6.6306043E0,5.25E0,1.35E1,6.5E-1,2.0065E3,9.6362436E-1,1.978E3,2.433848E-1,-2.1194167E-1,1.4144377E-1,3.345296E-1,4.8227593E-1,1.6082434E-1,1.453162E-1,1.41516E0],"split_indices":[9,1,0,1,2,15,2,0,0,0,0,0,0,0,0],"split_type":[0,0,0,0,0,0,0,0,0,0,0,0,0,0,0],"sum_hessian":[1.0727E4,9.438E3,1.289E3,2.958E3,6.48E3,1.24E3,4.9E1,1.846E3,1.112E3,2.673E3,3.807E3,8.91E2,3.49E2,1.2E1,3.7E1],"tree_param":{"num_deleted":"0","num_feature":"22","num_nodes":"15","size_leaf_vector":"0"}},{"base_weights":[2.0202978E0,4.3794947E0,1.7967129E0,4.7684507E0,2.5339338E-1,5.3742146E-1,2.3460057E0,-1.9615245E-1,5.167134E0,9.2944795E-1,-2.6915485E1,2.0987973E0,-4.28023E-1,1.7579435E0,3.545456E0],"categories":[],"categories_nodes":[],"categories_segments":[],"categories_sizes":[],"default_left":[1,1,1,1,1,1,1,0,0,0,0,0,0,0,0],"id":32,"left_children":[1,3,5,7,9,11,13,-1,-1,-1,-1,-1,-1,-1,-1],"loss_changes":[5.6509414E3,1.4881133E3,6.778285E3,1.6794629E3,1.5127958E3,4.49E3,4.807086E3,0E0,0E0,0E0,0E0,0E0,0E0,0E0,0E0],"parents":[2147483647,0,0,1,1,2,2,3,3,4,4,5,5,6,6],"right_children":[2,4,6,8,10,12,14,-1,-1,-1,-1,-1,-1,-1,-1],"split_conditions":[1.9845E3,2.65E1,1.75E1,9.625E2,5.15E1,8.5E0,2.0145E3,-1.9615246E-2,5.167134E-1,9.294479E-2,-2.6915486E0,2.0987974E-1,-4.28023E-2,1.7579435E-1,3.545456E-1],"split_indices":[2,6,5,2,17,0,2,0,0,0,0,0,0,0,0],"split_type":[0,0,0,0,0,0,0,0,0,0,0,0,0,0,0],"sum_hessian":[1.0727E4,9.27E2,9.8E3,8.47E2,8E1,2.977E3,6.823E3,6.3E1,7.84E2,7.9E1,1E0,1.137E3,1.84E3,4.58E3,2.243E3],"tree_param":{"num_deleted":"0","num_feature":"22","num_nodes":"15","size_leaf_vector":"0"}},{"base_weights":[1.8181374E0,1.5499666E0,3.550932E0,1.0001482E0,2.749433E0,2.3166041E0,5.590934E0,4.6763535E0,7.6038885E-1,2.2613251E0,4.886811E0,3.9928398E0,4.2882976E-1,9.575871E0,4.8271275E0],"categories":[],"categories_nodes":[],"categories_segments":[],"categories_sizes":[],"default_left":[1,1,1,1,1,1,1,0,0,0,0,0,0,0,0],"id":33,"left_children":[1,3,5,7,9,11,13,-1,-1,-1,-1,-1,-1,-1,-1],"loss_changes":[4.9796367E3,6.1252188E3,3.605459E3,5.613636E3,3.0353008E3,2.8367144E3,1.6004277E3,0E0,0E0,0E0,0E0,0E0,0E0,0E0,0E0],"parents":[2147483647,0,0,1,1,2,2,3,3,4,4,5,5,6,6],"right_children":[2,4,6,8,10,12,14,-1,-1,-1,-1,-1,-1,-1,-1],"split_conditions":[4.55E1,6.2671366E0,1.15E1,1.9795E3,1.5E0,8.602326E-1,7.8705966E-1,4.6763536E-1,7.603889E-2,2.2613251E-1,4.8868108E-1,3.9928398E-1,4.2882975E-2,9.575872E-1,4.8271275E-1],"split_indices":[5,9,0,2,21,15,15,0,0,0,0,0,0,0,0],"split_type":[0,0,0,0,0,0,0,0,0,0,0,0,0,0,0],"sum_hessian":[1.0727E4,9.291E3,1.436E3,6.372E3,2.919E3,8.96E2,5.4E2,3.89E2,5.983E3,2.378E3,5.41E2,4.74E2,4.22E2,8.5E1,4.55E2],"tree_param":{"num_deleted":"0","num_feature":"22","num_nodes":"15","size_leaf_vector":"0"}},{"base_weights":[1.6366165E0,-2.7440881E-2,1.8913075E0,1.6180766E0,-1.6318964E0,9.225497E0,1.8082026E0,-8.173344E0,1.9015952E0,6.8998246E0,-2.3596385E0,-4.760792E0,9.407508E0,1.5555422E0,3.8787155E0],"categories":[],"categories_nodes":[],"categories_segments":[],"categories_sizes":[],"default_left":[1,1,1,1,1,1,1,0,0,0,0,0,0,0,0],"id":34,"left_children":[1,3,5,7,9,11,13,-1,-1,-1,-1,-1,-1,-1,-1],"loss_changes":[4.546801E3,3.7648677E3,5.654164E3,1.9698823E3,4.4991006E3,3.0953418E2,4.8073457E3,0E0,0E0,0E0,0E0,0E0,0E0,0E0,0E0],"parents":[2147483647,0,0,1,1,2,2,3,3,4,4,5,5,6,6],"right_children":[2,4,6,8,10,12,14,-1,-1,-1,-1,-1,-1,-1,-1],"split_conditions":[2.5E0,1.05E1,1.9535E3,7.95E1,1.9855E3,2E0,8.05E0,-8.1733435E-1,1.9015953E-1,6.899825E-1,-2.3596385E-1,-4.760792E-1,9.407508E-1,1.5555422E-1,3.8787156E-1],"split_indices":[3,0,2,7,2,17,1,0,0,0,0,0,0,0,0],"split_type":[0,0,0,0,0,0,0,0,0,0,0,0,0,0,0],"sum_hessian":[1.0727E4,1.424E3,9.303E3,7.03E2,7.21E2,1.03E2,9.2E3,1.9E1,6.84E2,5.6E1,6.65E2,1E0,1.02E2,8.201E3,9.99E2],"tree_param":{"num_deleted":"0","num_feature":"22","num_nodes":"15","size_leaf_vector":"0"}},{"base_weights":[1.4730316E0,1.2429962E0,3.3711905E0,7.899215E-2,1.7561134E0,8.620588E0,3.0615804E0,1.6386428E0,-2.7177494E0,9.902986E-1,2.7956064E0,-3.134761E0,9.456525E0,2.2873442E0,4.520261E0],"categories":[],"categories_nodes":[],"categories_segments":[],"categories_sizes":[],"default_left":[1,1,1,1,1,1,1,0,0,0,0,0,0,0,0],"id":35,"left_children":[1,3,5,7,9,11,13,-1,-1,-1,-1,-1,-1,-1,-1],"loss_changes":[4.680125E3,5.7157393E3,1.857292E3,1.2780573E4,5.2846562E3,6.585542E2,1.2274424E3,0E0,0E0,0E0,0E0,0E0,0E0,0E0,0E0],"parents":[2147483647,0,0,1,1,2,2,3,3,4,4,5,5,6,6],"right_children":[2,4,6,8,10,12,14,-1,-1,-1,-1,-1,-1,-1,-1],"split_conditions":[2.0195E3,5.25E0,7.2910327E-1,6E-1,3.495E2,4.97E2,2.0215E3,1.6386428E-1,-2.7177495E-1,9.902986E-2,2.7956066E-1,-3.1347612E-1,9.456525E-1,2.2873442E-1,4.520261E-1],"split_indices":[2,1,15,1,7,7,2,0,0,0,0,0,0,0,0],"split_type":[0,0,0,0,0,0,0,0,0,0,0,0,0,0,0],"sum_hessian":[1.0727E4,9.569E3,1.158E3,2.928E3,6.641E3,6.3E1,1.095E3,1.88E3,1.048E3,3.825E3,2.816E3,4E0,5.9E1,7.17E2,3.78E2],"tree_param":{"num_deleted":"0","num_feature":"22","num_nodes":"15","size_leaf_vector":"0"}},{"base_weights":[1.325876E0,4.7389716E-1,1.7866744E0,2.8762278E-1,4.6714225E0,3.3999925E0,1.4853162E0,-3.11524E-1,1.7455959E0,4.0137258E0,1.8473406E1,2.2532687E0,6.257771E0,7.694888E-2,1.9471055E0],"categories":[],"categories_nodes":[],"categories_segments":[],"categories_sizes":[],"default_left":[1,1,1,1,1,1,1,0,0,0,0,0,0,0,0],"id":36,"left_children":[1,3,5,7,9,11,13,-1,-1,-1,-1,-1,-1,-1,-1],"loss_changes":[4.2108633E3,2.9440415E3,3.3797812E3,3.152276E3,1.3782563E3,3.5743027E3,3.8162148E3,0E0,0E0,0E0,0E0,0E0,0E0,0E0,0E0],"parents":[2147483647,0,0,1,1,2,2,3,3,4,4,5,5,6,6],"right_children":[2,4,6,8,10,12,14,-1,-1,-1,-1,-1,-1,-1,-1],"split_conditions":[5.878233E0,5.05E1,1.9975E3,2.0145E3,5.5E0,7.75E0,2.0055E3,-3.1152401E-2,1.745596E-1,4.0137258E-1,1.8473406E0,2.2532688E-1,6.257771E-1,7.6948884E-3,1.9471055E-1],"split_indices":[9,5,2,2,10,1,2,0,0,0,0,0,0,0,0],"split_type":[0,0,0,0,0,0,0,0,0,0,0,0,0,0,0],"sum_hessian":[1.0727E4,3.766E3,6.961E3,3.607E3,1.59E2,1.094E3,5.867E3,2.557E3,1.05E3,1.53E2,6E0,7.82E2,3.12E2,1.449E3,4.418E3],"tree_param":{"num_deleted":"0","num_feature":"22","num_nodes":"15","size_leaf_vector":"0"}},{"base_weights":[1.1936095E0,1.1225064E0,6.524426E0,4.414087E-1,1.6677729E0,1.8265544E0,8.929494E0,1.4303282E0,-3.724011E-1,6.8213326E-1,2.5153756E0,-4.409506E0,6.279338E0,9.824673E0,-5.688045E0],"categories":[],"categories_nodes":[],"categories_segments":[],"categories_sizes":[],"default_left":[1,1,1,1,1,1,1,0,0,0,0,0,0,0,0],"id":37,"left_children":[1,3,5,7,9,11,13,-1,-1,-1,-1,-1,-1,-1,-1],"loss_changes":[4.0589854E3,3.9314326E3,1.5768062E3,3.7903003E3,4.910617E3,1.3883123E3,1.2728174E3,0E0,0E0,0E0,0E0,0E0,0E0,0E0,0E0],"parents":[2147483647,0,0,1,1,2,2,3,3,4,4,5,5,6,6],"right_children":[2,4,6,8,10,12,14,-1,-1,-1,-1,-1,-1,-1,-1],"split_conditions":[4.35E1,6.1499996E0,2.25E1,6.5E-1,2.0065E3,4.85E1,7.5E0,1.4303283E-1,-3.724011E-2,6.821333E-2,2.5153756E-1,-4.409506E-1,6.279338E-1,9.824673E-1,-5.688045E-1],"split_indices":[6,1,5,1,2,6,13,0,0,0,0,0,0,0,0],"split_type":[0,0,0,0,0,0,0,0,0,0,0,0,0,0,0],"sum_hessian":[1.0727E4,1.0587E4,1.4E2,4.708E3,5.879E3,4.8E1,9.2E1,2.125E3,2.583E3,2.719E3,3.16E3,2E1,2.8E1,8.7E1,5E0],"tree_param":{"num_deleted":"0","num_feature":"22","num_nodes":"15","size_leaf_vector":"0"}},{"base_weights":[1.0743432E0,8.4746E-1,2.7336273E0,2.315659E0,5.120616E-1,2.4857626E0,8.8309555E0,3.2337449E0,8.9731294E-1,4.1143158E-1,5.8932056E0,-4.610293E0,2.7504551E0,-3.690925E-2,1.1632305E1],"categories":[],"categories_nodes":[],"categories_segments":[],"categories_sizes":[],"default_left":[1,1,1,1,1,1,1,0,0,0,0,0,0,0,0],"id":38,"left_children":[1,3,5,7,9,11,13,-1,-1,-1,-1,-1,-1,-1,-1],"loss_changes":[4.0363867E3,4.646876E3,1.9276416E3,2.2823955E3,4.159038E3,2.3436147E3,1.2425286E3,0E0,0E0,0E0,0E0,0E0,0E0,0E0,0E0],"parents":[2147483647,0,0,1,1,2,2,3,3,4,4,5,5,6,6],"right_children":[2,4,6,8,10,12,14,-1,-1,-1,-1,-1,-1,-1,-1],"split_conditions":[6.6306043E0,7.731526E-1,1.35E1,5.35E1,8.55E0,7.75E1,1.978E3,3.2337448E-1,8.97313E-2,4.114316E-2,5.893206E-1,-4.610293E-1,2.750455E-1,-3.690925E-3,1.1632305E0],"split_indices":[9,15,0,17,1,7,2,0,0,0,0,0,0,0,0],"split_type":[0,0,0,0,0,0,0,0,0,0,0,0,0,0,0],"sum_hessian":[1.0727E4,9.438E3,1.289E3,1.754E3,7.684E3,1.24E3,4.9E1,1.064E3,6.9E2,7.544E3,1.4E2,4.4E1,1.196E3,1.2E1,3.7E1],"tree_param":{"num_deleted":"0","num_feature":"22","num_nodes":"15","size_leaf_vector":"0"}},{"base_weights":[9.670973E-1,5.4146594E-1,1.7988693E0,3.428834E0,3.1364143E-1,1.5204262E0,4.219641E0,-8.551223E-1,4.1657095E0,1.3496896E0,-3.1825238E-1,1.0068171E0,3.2395694E0,7.8645415E0,2.710191E0],"categories":[],"categories_nodes":[],"categories_segments":[],"categories_sizes":[],"default_left":[1,1,1,1,1,1,1,0,0,0,0,0,0,0,0],"id":39,"left_children":[1,3,5,7,9,11,13,-1,-1,-1,-1,-1,-1,-1,-1],"loss_changes":[3.797042E3,4.6680835E3,2.4410479E3,1.6419111E3,4.3081743E3,2.8734468E3,2.0363574E3,0E0,0E0,0E0,0E0,0E0,0E0,0E0,0E0],"parents":[2147483647,0,0,1,1,2,2,3,3,4,4,5,5,6,6],"right_children":[2,4,6,8,10,12,14,-1,-1,-1,-1,-1,-1,-1,-1],"split_conditions":[3.65E1,1.9825E3,8.15E0,9.64E2,8.5E0,2.0165E3,4.95E0,-8.5512236E-2,4.1657096E-1,1.3496897E-1,-3.182524E-2,1.00681715E-1,3.2395694E-1,7.8645414E-1,2.710191E-1],"split_indices":[5,2,1,2,0,2,8,0,0,0,0,0,0,0,0],"split_type":[0,0,0,0,0,0,0,0,0,0,0,0,0,0,0],"sum_hessian":[1.0727E4,7.097E3,3.63E3,5.18E2,6.579E3,3.257E3,3.73E2,7.6E1,4.42E2,2.492E3,4.087E3,2.509E3,7.48E2,1.08E2,2.65E2],"tree_param":{"num_deleted":"0","num_feature":"22","num_nodes":"15","size_leaf_vector":"0"}},{"base_weights":[8.705662E-1,7.7269536E-1,4.293451E0,1.5435742E0,3.1250414E-1,3.8590689E0,1.4324629E1,3.4849179E0,1.1648248E0,-8.7519217E-1,1.2427378E0,4.78166E0,-2.1029133E-1,1.6575827E1,2.045761E0],"categories":[],"categories_nodes":[],"categories_segments":[],"categories_sizes":[],"default_left":[1,1,1,1,1,1,1,0,0,0,0,0,0,0,0],"id":40,"left_children":[1,3,5,7,9,11,13,-1,-1,-1,-1,-1,-1,-1,-1],"loss_changes":[3.590567E3,3.699933E3,1.2432139E3,2.8628066E3,7.218974E3,1.0785059E3,2.9779565E2,0E0,0E0,0E0,0E0,0E0,0E0,0E0,0E0],"parents":[2147483647,0,0,1,1,2,2,3,3,4,4,5,5,6,6],"right_children":[2,4,6,8,10,12,14,-1,-1,-1,-1,-1,-1,-1,-1],"split_conditions":[1.45E1,8.5E0,3.75E1,7.617471E-1,1.15E1,2.15E1,1.15E1,3.484918E-1,1.1648249E-1,-8.751922E-2,1.2427378E-1,4.78166E-1,-2.1029133E-2,1.6575826E0,2.0457612E-1],"split_indices":[0,0,6,15,0,6,3,0,0,0,0,0,0,0,0],"split_type":[0,0,0,0,0,0,0,0,0,0,0,0,0,0,0],"sum_hessian":[1.0727E4,1.043E4,2.97E2,3.898E3,6.532E3,2.86E2,1.1E1,6.35E2,3.263E3,2.869E3,3.663E3,2.33E2,5.3E1,9E0,2E0],"tree_param":{"num_deleted":"0","num_feature":"22","num_nodes":"15","size_leaf_vector":"0"}},{"base_weights":[7.8377193E-1,-6.475699E-1,1.0029119E0,2.6959245E0,-1.2115964E0,7.333356E0,9.3124914E-1,4.2773314E0,-4.8906455E0,4.651604E-1,-2.7519913E0,1.1742401E-1,7.696611E0,-5.4713655E-2,1.3320028E0],"categories":[],"categories_nodes":[],"categories_segments":[],"categories_sizes":[],"default_left":[1,1,1,1,1,1,1,0,0,0,0,0,0,0,0],"id":41,"left_children":[1,3,5,7,9,11,13,-1,-1,-1,-1,-1,-1,-1,-1],"loss_changes":[3.3656392E3,2.6905588E3,4.213996E3,2.492394E3,3.1523787E3,2.717041E2,3.6356465E3,0E0,0E0,0E0,0E0,0E0,0E0,0E0,0E0],"parents":[2147483647,0,0,1,1,2,2,3,3,4,4,5,5,6,6],"right_children":[2,4,6,8,10,12,14,-1,-1,-1,-1,-1,-1,-1,-1],"split_conditions":[2.5E0,1.9885E3,1.9535E3,3.5E0,1.05E1,7.65E1,5.05E0,4.2773315E-1,-4.8906454E-1,4.6516042E-2,-2.7519915E-1,1.1742401E-2,7.696611E-1,-5.4713655E-3,1.3320027E-1],"split_indices":[3,2,2,13,0,7,1,0,0,0,0,0,0,0,0],"split_type":[0,0,0,0,0,0,0,0,0,0,0,0,0,0,0],"sum_hessian":[1.0727E4,1.424E3,9.303E3,2.05E2,1.219E3,1.03E2,9.2E3,1.7E2,3.5E1,5.84E2,6.35E2,5E0,9.8E1,2.659E3,6.541E3],"tree_param":{"num_deleted":"0","num_feature":"22","num_nodes":"15","size_leaf_vector":"0"}},{"base_weights":[7.0545137E-1,5.5106026E-1,2.7013938E0,-2.9516256E0,6.571672E-1,1.110802E1,2.4624064E0,4.701158E0,-3.9410217E0,6.0489373E0,5.7500154E-1,5.6081285E0,1.4765594E1,5.0478816E0,1.8555101E0],"categories":[],"categories_nodes":[],"categories_segments":[],"categories_sizes":[],"default_left":[1,1,1,1,1,1,1,0,0,0,0,0,0,0,0],"id":42,"left_children":[1,3,5,7,9,11,13,-1,-1,-1,-1,-1,-1,-1,-1],"loss_changes":[3.3044062E3,3.7032947E3,1.5196377E3,2.237016E3,4.279181E3,3.396338E2,1.1674697E3,0E0,0E0,0E0,0E0,0E0,0E0,0E0,0E0],"parents":[2147483647,0,0,1,1,2,2,3,3,4,4,5,5,6,6],"right_children":[2,4,6,8,10,12,14,-1,-1,-1,-1,-1,-1,-1,-1],"split_conditions":[2.0205E3,2.5E0,7.1241164E-1,5E0,1.9565E3,1.35E1,1.25E1,4.701158E-1,-3.941022E-1,6.0489374E-1,5.7500154E-2,5.608129E-1,1.4765594E0,5.0478816E-1,1.8555102E-1],"split_indices":[2,5,15,0,2,6,17,0,0,0,0,0,0,0,0],"split_type":[0,0,0,0,0,0,0,0,0,0,0,0,0,0,0],"sum_hessian":[1.0727E4,9.958E3,7.69E2,2.92E2,9.666E3,2E1,7.49E2,3.3E1,2.59E2,1.44E2,9.522E3,9E0,1.1E1,1.41E2,6.08E2],"tree_param":{"num_deleted":"0","num_feature":"22","num_nodes":"15","size_leaf_vector":"0"}},{"base_weights":[6.352296E-1,2.8771254E-1,1.5091656E0,1.9513048E-1,5.703326E0,2.9249778E0,1.0023528E0,-6.6173136E-2,1.8850111E0,-7.7760377E0,6.424076E0,2.9946516E0,-1.6676107E1,1.2013333E-1,1.984787E0],"categories":[],"categories_nodes":[],"categories_segments":[],"categories_sizes":[],"default_left":[1,1,1,1,1,1,1,0,0,0,0,0,0,0,0],"id":43,"left_children":[1,3,5,7,9,11,13,-1,-1,-1,-1,-1,-1,-1,-1],"loss_changes":[3.2577422E3,3.848047E3,2.1870361E3,3.333551E3,1.3032212E3,1.1479453E3,1.9490203E3,0E0,0E0,0E0,0E0,0E0,0E0,0E0,0E0],"parents":[2147483647,0,0,1,1,2,2,3,3,4,4,5,5,6,6],"right_children":[2,4,6,8,10,12,14,-1,-1,-1,-1,-1,-1,-1,-1],"split_conditions":[6.3096914E0,8.55E0,8.3763456E-1,4.55E1,7.5E0,8.65E0,6.6306043E0,-6.6173137E-3,1.885011E-1,-7.776038E-1,6.424076E-1,2.9946515E-1,-1.6676108E0,1.2013334E-2,1.984787E-1],"split_indices":[9,1,15,5,5,1,9,0,0,0,0,0,0,0,0],"split_type":[0,0,0,0,0,0,0,0,0,0,0,0,0,0,0],"sum_hessian":[1.0727E4,7.676E3,3.051E3,7.548E3,1.28E2,8.03E2,2.248E3,6.538E3,1.01E3,6E0,1.22E2,8.01E2,2E0,1.185E3,1.063E3],"tree_param":{"num_deleted":"0","num_feature":"22","num_nodes":"15","size_leaf_vector":"0"}},{"base_weights":[5.716035E-1,5.097337E-1,5.21349E0,8.7644565E-1,-2.5382873E-1,1.205251E0,7.269299E0,-3.191584E-1,1.1940184E0,-2.1786752E0,1.6722859E0,-4.3516307E0,5.187639E0,8.076009E0,-5.773994E0],"categories":[],"categories_nodes":[],"categories_segments":[],"categories_sizes":[],"default_left":[1,1,1,1,1,1,1,0,0,0,0,0,0,0,0],"id":44,"left_children":[1,3,5,7,9,11,13,-1,-1,-1,-1,-1,-1,-1,-1],"loss_changes":[3.0783452E3,2.9649414E3,1.153103E3,2.7163115E3,1.2742528E4,1.1069281E3,1.0251914E3,0E0,0E0,0E0,0E0,0E0,0E0,0E0,0E0],"parents":[2147483647,0,0,1,1,2,2,3,3,4,4,5,5,6,6],"right_children":[2,4,6,8,10,12,14,-1,-1,-1,-1,-1,-1,-1,-1],"split_conditions":[4.35E1,-5E-1,2.25E1,5.698912E0,1.5E0,4.85E1,7.5E0,-3.191584E-2,1.19401835E-1,-2.1786752E-1,1.672286E-1,-4.3516308E-1,5.1876396E-1,8.076009E-1,-5.7739943E-1],"split_indices":[6,21,5,9,21,6,13,0,0,0,0,0,0,0,0],"split_type":[0,0,0,0,0,0,0,0,0,0,0,0,0,0,0],"sum_hessian":[1.0727E4,1.0587E4,1.4E2,7.152E3,3.435E3,4.8E1,9.2E1,1.501E3,5.651E3,1.718E3,1.717E3,2E1,2.8E1,8.7E1,5E0],"tree_param":{"num_deleted":"0","num_feature":"22","num_nodes":"15","size_leaf_vector":"0"}},{"base_weights":[5.1447695E-1,1.8216877E0,3.077004E-1,2.963204E0,5.56186E-1,1.8897834E-1,3.385641E0,3.034305E-1,3.9149334E0,-6.992687E-1,3.445261E0,2.1259806E0,-2.9435115E-2,4.2031665E0,-5.7011276E-2],"categories":[],"categories_nodes":[],"categories_segments":[],"categories_sizes":[],"default_left":[1,1,1,1,1,1,1,0,0,0,0,0,0,0,0],"id":45,"left_children":[1,3,5,7,9,11,13,-1,-1,-1,-1,-1,-1,-1,-1],"loss_changes":[2.8992246E3,2.1146772E3,3.3846057E3,1.9479785E3,2.5268723E3,3.7742468E3,9.684121E2,0E0,0E0,0E0,0E0,0E0,0E0,0E0,0E0],"parents":[2147483647,0,0,1,1,2,2,3,3,4,4,5,5,6,6],"right_children":[2,4,6,8,10,12,14,-1,-1,-1,-1,-1,-1,-1,-1],"split_conditions":[7.6279926E-1,7.545E2,2.0215E3,4.55E0,6.1089087E0,1.9845E3,7.583333E0,3.034305E-2,3.9149335E-1,-6.992687E-2,3.445261E-1,2.1259807E-1,-2.9435116E-3,4.2031667E-1,-5.701128E-3],"split_indices":[15,7,2,1,9,2,8,0,0,0,0,0,0,0,0],"split_type":[0,0,0,0,0,0,0,0,0,0,0,0,0,0,0],"sum_hessian":[1.0727E4,1.464E3,9.263E3,7.69E2,6.95E2,8.92E3,3.43E2,2.03E2,5.66E2,4.85E2,2.1E2,9.03E2,8.017E3,2.77E2,6.6E1],"tree_param":{"num_deleted":"0","num_feature":"22","num_nodes":"15","size_leaf_vector":"0"}},{"base_weights":[4.6315327E-1,3.8225478E-1,3.5598984E0,6.9861466E-1,-4.868234E-1,2.5024354E0,6.974075E0,4.7689518E-1,2.3544915E0,-2.7187254E0,-1.5729621E-1,-5.74587E0,3.1663864E0,-1.0769492E1,7.7201495E0],"categories":[],"categories_nodes":[],"categories_segments":[],"categories_sizes":[],"default_left":[1,1,1,1,1,1,1,0,0,0,0,0,0,0,0],"id":46,"left_children":[1,3,5,7,9,11,13,-1,-1,-1,-1,-1,-1,-1,-1],"loss_changes":[2.6862388E3,2.875128E3,9.681775E2,2.813374E3,2.052276E3,1.1682526E3,9.303755E2,0E0,0E0,0E0,0E0,0E0,0E0,0E0,0E0],"parents":[2147483647,0,0,1,1,2,2,3,3,4,4,5,5,6,6],"right_children":[2,4,6,8,10,12,14,-1,-1,-1,-1,-1,-1,-1,-1],"split_conditions":[1.55E1,9.17517E-1,7.6499996E0,6.521553E0,9.5E0,2.546296E-1,5.075E0,4.768952E-2,2.3544915E-1,-2.7187255E-1,-1.5729621E-2,-5.7458705E-1,3.1663865E-1,-1.0769492E0,7.72015E-1],"split_indices":[0,15,1,9,5,19,9,0,0,0,0,0,0,0,0],"split_type":[0,0,0,0,0,0,0,0,0,0,0,0,0,0,0],"sum_hessian":[1.0727E4,1.0455E4,2.72E2,7.665E3,2.79E3,2.09E2,6.3E1,6.761E3,9.04E2,3.58E2,2.432E3,1.5E1,1.94E2,2E0,6.1E1],"tree_param":{"num_deleted":"0","num_feature":"22","num_nodes":"15","size_leaf_vector":"0"}},{"base_weights":[4.1678363E-1,-3.0218652E-1,7.537223E-1,7.327725E-1,-2.0847416E0,-6.880796E-2,1.3755796E0,4.7744638E-1,3.932536E0,-6.7134075E0,-1.0315602E0,-2.9484954E-1,7.882411E0,1.0250236E0,2.5654974E0],"categories":[],"categories_nodes":[],"categories_segments":[],"categories_sizes":[],"default_left":[1,1,1,1,1,1,1,0,0,0,0,0,0,0,0],"id":47,"left_children":[1,3,5,7,9,11,13,-1,-1,-1,-1,-1,-1,-1,-1],"loss_changes":[2.5990737E3,6.3183677E3,3.7365767E3,1.768525E3,6.1256035E3,5.6566494E3,1.7326426E3,0E0,0E0,0E0,0E0,0E0,0E0,0E0,0E0],"parents":[2147483647,0,0,1,1,2,2,3,3,4,4,5,5,6,6],"right_children":[2,4,6,8,10,12,14,-1,-1,-1,-1,-1,-1,-1,-1],"split_conditions":[5.25E0,6.5E-1,2.0065E3,4.5E0,3.35E0,5.855E2,7.55E0,4.774464E-2,3.932536E-1,-6.7134076E-1,-1.0315602E-1,-2.9484956E-2,7.882411E-1,1.0250236E-1,2.5654975E-1],"split_indices":[1,1,2,10,1,7,1,0,0,0,0,0,0,0,0],"split_type":[0,0,0,0,0,0,0,0,0,0,0,0,0,0,0],"sum_hessian":[1.0727E4,3.423E3,7.304E3,2.166E3,1.257E3,3.145E3,4.159E3,2.007E3,1.59E2,2.32E2,1.025E3,3.059E3,8.6E1,3.214E3,9.45E2],"tree_param":{"num_deleted":"0","num_feature":"22","num_nodes":"15","size_leaf_vector":"0"}},{"base_weights":[3.7517905E-1,7.10842E-1,-3.241302E-1,4.3295026E-1,2.046736E0,-2.0859783E0,1.3988612E0,3.2990682E-1,4.478476E0,1.7892267E0,1.0666515E1,-2.3642423E0,3.5771978E0,4.0502634E0,-4.6682492E-2],"categories":[],"categories_nodes":[],"categories_segments":[],"categories_sizes":[],"default_left":[1,1,1,1,1,1,1,0,0,0,0,0,0,0,0],"id":48,"left_children":[1,3,5,7,9,11,13,-1,-1,-1,-1,-1,-1,-1,-1],"loss_changes":[2.5184375E3,2.6901895E3,1.0566977E4,2.5005454E3,2.7510674E3,2.7205098E3,6.7457715E3,0E0,0E0,0E0,0E0,0E0,0E0,0E0,0E0],"parents":[2147483647,0,0,1,1,2,2,3,3,4,4,5,5,6,6],"right_children":[2,4,6,8,10,12,14,-1,-1,-1,-1,-1,-1,-1,-1],"split_conditions":[-5E-1,1.05E1,1.5E0,1.55E1,3.85E1,2.0215E3,3.5E0,3.2990683E-2,4.478476E-1,1.7892267E-1,1.0666516E0,-2.3642424E-1,3.5771978E-1,4.0502635E-1,-4.6682493E-3],"split_indices":[21,3,21,0,6,2,21,0,0,0,0,0,0,0,0],"split_type":[0,0,0,0,0,0,0,0,0,0,0,0,0,0,0],"sum_hessian":[1.0727E4,7.248E3,3.479E3,6.001E3,1.247E3,1.72E3,1.759E3,5.853E3,1.48E2,1.212E3,3.5E1,1.64E3,8E1,6.2E2,1.139E3],"tree_param":{"num_deleted":"0","num_feature":"22","num_nodes":"15","size_leaf_vector":"0"}},{"base_weights":[3.378712E-1,-2.0939156E-1,7.532653E-1,-3.025265E-1,5.229746E0,2.1789043E0,4.8948097E-1,1.6646615E0,-5.418093E-1,-6.5992723E0,7.066355E0,2.6464639E0,-2.328682E0,1.0396158E0,-5.3172845E-1],"categories":[],"categories_nodes":[],"categories_segments":[],"categories_sizes":[],"default_left":[1,1,1,1,1,1,1,0,0,0,0,0,0,0,0],"id":49,"left_children":[1,3,5,7,9,11,13,-1,-1,-1,-1,-1,-1,-1,-1],"loss_changes":[2.4389507E3,2.347018E3,2.2925303E3,2.1440645E3,1.7412053E3,2.012565E3,2.8927136E3,0E0,0E0,0E0,0E0,0E0,0E0,0E0,0E0],"parents":[2147483647,0,0,1,1,2,2,3,3,4,4,5,5,6,6],"right_children":[2,4,6,8,10,12,14,-1,-1,-1,-1,-1,-1,-1,-1],"split_conditions":[5.9732413E0,8.55E0,1.9975E3,1.9845E3,1.355E2,2.55E1,8.9076704E-1,1.6646616E-1,-5.418093E-2,-6.5992725E-1,7.0663553E-1,2.6464638E-1,-2.328682E-1,1.0396158E-1,-5.3172845E-2],"split_indices":[9,1,2,2,7,6,15,0,0,0,0,0,0,0,0],"split_type":[0,0,0,0,0,0,0,0,0,0,0,0,0,0,0],"sum_hessian":[1.0727E4,4.629E3,6.098E3,4.552E3,7.7E1,9.51E2,5.147E3,4.93E2,4.059E3,1E1,6.7E1,8.62E2,8.9E1,3.345E3,1.802E3],"tree_param":{"num_deleted":"0","num_feature":"22","num_nodes":"15","size_leaf_vector":"0"}},{"base_weights":[3.041068E-1,1.386848E-1,1.6697534E0,-7.803415E-1,4.938671E-1,6.0495152E0,1.4124774E0,4.2977518E-1,-3.6679673E0,1.8186663E0,2.5321916E-1,-3.7543588E0,6.7656794E0,1.5491263E0,-5.6564126E0],"categories":[],"categories_nodes":[],"categories_segments":[],"categories_sizes":[],"default_left":[1,1,1,1,1,1,1,0,0,0,0,0,0,0,0],"id":50,"left_children":[1,3,5,7,9,11,13,-1,-1,-1,-1,-1,-1,-1,-1],"loss_changes":[2.4233093E3,3.124243E3,1.297425E3,9.324541E3,2.2002861E3,4.747566E2,1.0674502E3,0E0,0E0,0E0,0E0,0E0,0E0,0E0,0E0],"parents":[2147483647,0,0,1,1,2,2,3,3,4,4,5,5,6,6],"right_children":[2,4,6,8,10,12,14,-1,-1,-1,-1,-1,-1,-1,-1],"split_conditions":[2.0195E3,4.95E0,7.2910327E-1,6E-1,7.701926E-1,4.97E2,8.25E0,4.297752E-2,-3.6679673E-1,1.8186663E-1,2.5321916E-2,-3.754359E-1,6.76568E-1,1.5491264E-1,-5.656413E-1],"split_indices":[2,1,15,1,15,7,1,0,0,0,0,0,0,0,0],"split_type":[0,0,0,0,0,0,0,0,0,0,0,0,0,0,0],"sum_hessian":[1.0727E4,9.569E3,1.158E3,2.667E3,6.902E3,6.3E1,1.095E3,1.88E3,7.87E2,1.06E3,5.842E3,4E0,5.9E1,1.075E3,2E1],"tree_param":{"num_deleted":"0","num_feature":"22","num_nodes":"15","size_leaf_vector":"0"}},{"base_weights":[2.7367526E-1,1.0106743E-1,1.5364438E0,-6.661126E-1,4.5131966E-1,-2.1029458E0,1.8506869E0,3.2970825E-1,-2.3180578E0,-3.113309E-1,9.8673886E-1,-5.264285E0,3.2198749E0,1.702634E0,1.1379537E1],"categories":[],"categories_nodes":[],"categories_segments":[],"categories_sizes":[],"default_left":[1,1,1,1,1,1,1,0,0,0,0,0,0,0,0],"id":51,"left_children":[1,3,5,7,9,11,13,-1,-1,-1,-1,-1,-1,-1,-1],"loss_changes":[2.3381597E3,2.5366216E3,1.4792039E3,4.868442E3,2.6467441E3,1.7501562E3,1.6566243E3,0E0,0E0,0E0,0E0,0E0,0E0,0E0,0E0],"parents":[2147483647,0,0,1,1,2,2,3,3,4,4,5,5,6,6],"right_children":[2,4,6,8,10,12,14,-1,-1,-1,-1,-1,-1,-1,-1],"split_conditions":[6.6306043E0,5.25E0,9.45E1,6.5E-1,2.0065E3,3.5E0,5.15E1,3.2970827E-2,-2.3180579E-1,-3.1133091E-2,9.867389E-2,-5.264285E-1,3.2198748E-1,1.702634E-1,1.1379536E0],"split_indices":[9,1,7,1,2,11,5,0,0,0,0,0,0,0,0],"split_type":[0,0,0,0,0,0,0,0,0,0,0,0,0,0,0],"sum_hessian":[1.0727E4,9.438E3,1.289E3,2.958E3,6.48E3,1.02E2,1.187E3,1.846E3,1.112E3,2.673E3,3.807E3,6.4E1,3.8E1,1.17E3,1.7E1],"tree_param":{"num_deleted":"0","num_feature":"22","num_nodes":"15","size_leaf_vector":"0"}},{"base_weights":[2.46398E-1,-2.3387997E0,3.258501E-1,-8.836081E-1,-5.5313854E0,5.35125E0,2.6869497E-1,-1.7076132E0,7.9667416E0,-4.1558285E0,-1.44173565E1,7.442627E0,3.7347782E0,-3.588028E-1,6.0439336E-1],"categories":[],"categories_nodes":[],"categories_segments":[],"categories_sizes":[],"default_left":[1,1,1,1,1,1,1,0,0,0,0,0,0,0,0],"id":52,"left_children":[1,3,5,7,9,11,13,-1,-1,-1,-1,-1,-1,-1,-1],"loss_changes":[2.2042866E3,1.4817758E3,2.9883115E3,1.6252982E3,1.1623999E3,3.677395E2,2.168437E3,0E0,0E0,0E0,0E0,0E0,0E0,0E0,0E0],"parents":[2147483647,0,0,1,1,2,2,3,3,4,4,5,5,6,6],"right_children":[2,4,6,8,10,12,14,-1,-1,-1,-1,-1,-1,-1,-1],"split_conditions":[2.5E0,-5E-1,1.9535E3,2.0205E3,4.7E1,1.9415E3,5.878233E0,-1.7076133E-1,7.966742E-1,-4.1558287E-1,-1.4417356E0,7.442627E-1,3.7347782E-1,-3.588028E-2,6.0439337E-2],"split_indices":[5,21,2,2,17,2,9,0,0,0,0,0,0,0,0],"split_type":[0,0,0,0,0,0,0,0,0,0,0,0,0,0,0],"sum_hessian":[1.0727E4,3.19E2,1.0408E4,2.2E2,9.9E1,1.16E2,1.0292E4,2.02E2,1.8E1,8.7E1,1.2E1,4.9E1,6.7E1,3.587E3,6.705E3],"tree_param":{"num_deleted":"0","num_feature":"22","num_nodes":"15","size_leaf_vector":"0"}},{"base_weights":[2.2174972E-1,1.9368869E-1,7.356666E0,-1.4674054E-1,7.759868E-1,-1.9645445E1,8.494411E0,5.03054E-1,-1.9375737E0,3.5649985E-1,2.784812E0,9.430437E0,-1.3105622E-1],"categories":[],"categories_nodes":[],"categories_segments":[],"categories_sizes":[],"default_left":[1,1,1,1,1,0,1,0,0,0,0,0,0],"id":53,"left_children":[1,3,5,7,9,-1,11,-1,-1,-1,-1,-1,-1],"loss_changes":[2.1464614E3,2.118612E3,1.4571804E3,7.849953E3,3.3216787E3,0E0,3.322556E2,0E0,0E0,0E0,0E0,0E0,0E0],"parents":[2147483647,0,0,1,1,2,2,3,3,4,4,6,6],"right_children":[2,4,6,8,10,-1,12,-1,-1,-1,-1,-1,-1],"split_conditions":[8.75E0,1.15E1,1.01E2,1.05E1,1.05E1,-1.9645445E0,5.48E2,5.0305404E-2,-1.9375737E-1,3.5649985E-2,2.7848122E-1,9.430437E-1,-1.31056225E-2],"split_indices":[1,0,7,0,3,0,7,0,0,0,0,0,0],"split_type":[0,0,0,0,0,0,0,0,0,0,0,0,0],"sum_hessian":[1.0727E4,1.0686E4,4.1E1,6.744E3,3.942E3,1E0,4E1,4.949E3,1.795E3,3.262E3,6.8E2,3.6E1,4E0],"tree_param":{"num_deleted":"0","num_feature":"22","num_nodes":"13","size_leaf_vector":"0"}},{"base_weights":[1.9949406E-1,1.4966694E-1,3.939708E0,-6.1848335E-4,1.3915273E0,-3.3206406E0,4.766208E0,-1.8717463E-1,1.4297029E0,2.2588706E0,3.105719E-1,-1.3462927E0,-1.5480755E1,1.6298641E0,7.216988E0],"categories":[],"categories_nodes":[],"categories_segments":[],"categories_sizes":[],"default_left":[1,1,1,1,1,1,1,0,0,0,0,0,0,0,0],"id":54,"left_children":[1,3,5,7,9,11,13,-1,-1,-1,-1,-1,-1,-1,-1],"loss_changes":[1.9987249E3,1.9760765E3,8.619226E2,2.5207932E3,1.070929E3,3.392828E2,9.6442163E2,0E0,0E0,0E0,0E0,0E0,0E0,0E0,0E0],"parents":[2147483647,0,0,1,1,2,2,3,3,4,4,5,5,6,6],"right_children":[2,4,6,8,10,12,14,-1,-1,-1,-1,-1,-1,-1,-1],"split_conditions":[4.35E1,2.0195E3,5E-1,8.05E0,5.732143E0,9.640151E-1,6.5E0,-1.8717464E-2,1.429703E-1,2.2588706E-1,3.1057192E-2,-1.3462928E-1,-1.5480756E0,1.6298641E-1,7.216988E-1],"split_indices":[6,2,16,1,8,15,3,0,0,0,0,0,0,0,0],"split_type":[0,0,0,0,0,0,0,0,0,0,0,0,0,0,0],"sum_hessian":[1.0727E4,1.0587E4,1.4E2,9.445E3,1.142E3,1.4E1,1.26E2,8.356E3,1.089E3,6.33E2,5.09E2,1.3E1,1E0,5.6E1,7E1],"tree_param":{"num_deleted":"0","num_feature":"22","num_nodes":"15","size_leaf_vector":"0"}},{"base_weights":[1.7950642E-1,4.7506073E-1,-4.3619835E-1,1.0228685E-1,1.199378E0,-1.9912311E0,1.0846242E0,3.2605502E-1,-2.300181E0,1.879751E0,1.7309956E-1,2.3988113E0,-2.2866578E0,3.439222E0,-1.9896351E-1],"categories":[],"categories_nodes":[],"categories_segments":[],"categories_sizes":[],"default_left":[1,1,1,1,1,1,1,0,0,0,0,0,0,0,0],"id":55,"left_children":[1,3,5,7,9,11,13,-1,-1,-1,-1,-1,-1,-1,-1],"loss_changes":[1.9524263E3,1.9571549E3,8.232112E3,2.5742212E3,1.7194695E3,2.2375117E3,5.31999E3,0E0,0E0,0E0,0E0,0E0,0E0,0E0,0E0],"parents":[2147483647,0,0,1,1,2,2,3,3,4,4,5,5,6,6],"right_children":[2,4,6,8,10,12,14,-1,-1,-1,-1,-1,-1,-1,-1],"split_conditions":[-5E-1,3.65E1,1.5E0,3.35E1,8.8603896E-1,1.9815E3,3.5E0,3.2605503E-2,-2.300181E-1,1.879751E-1,1.7309956E-2,2.3988114E-1,-2.2866578E-1,3.4392223E-1,-1.989635E-2],"split_indices":[21,5,21,5,15,2,21,0,0,0,0,0,0,0,0],"split_type":[0,0,0,0,0,0,0,0,0,0,0,0,0,0,0],"sum_hessian":[1.0727E4,7.248E3,3.479E3,4.786E3,2.462E3,1.72E3,1.759E3,4.379E3,4.07E2,1.48E3,9.82E2,1.08E2,1.612E3,6.2E2,1.139E3],"tree_param":{"num_deleted":"0","num_feature":"22","num_nodes":"15","size_leaf_vector":"0"}},{"base_weights":[1.6158767E-1,-1.5570001E-1,7.036835E-1,4.1746485E-1,-1.7342807E0,3.3781028E-1,2.4560647E0,3.1578798E-2,1.8224933E0,-2.7790792E0,-8.785136E-2,3.6194272E0,1.538041E-1,-5.484693E-1,3.1620896E0],"categories":[],"categories_nodes":[],"categories_segments":[],"categories_sizes":[],"default_left":[1,1,1,1,1,1,1,0,0,0,0,0,0,0,0],"id":56,"left_children":[1,3,5,7,9,11,13,-1,-1,-1,-1,-1,-1,-1,-1],"loss_changes":[1.8453291E3,6.1243228E3,2.5387627E3,2.692413E3,3.1012515E3,1.9788235E3,1.4526875E3,0E0,0E0,0E0,0E0,0E0,0E0,0E0,0E0],"parents":[2147483647,0,0,1,1,2,2,3,3,4,4,5,5,6,6],"right_children":[2,4,6,8,10,12,14,-1,-1,-1,-1,-1,-1,-1,-1],"split_conditions":[1.15E1,1.05E1,1.05E1,7.45E0,2.0115E3,1.9765E3,5.675649E0,3.15788E-3,1.8224934E-1,-2.7790794E-1,-8.785136E-3,3.6194274E-1,1.538041E-2,-5.484693E-2,3.1620896E-1],"split_indices":[0,0,3,1,2,2,9,0,0,0,0,0,0,0,0],"split_type":[0,0,0,0,0,0,0,0,0,0,0,0,0,0,0],"sum_hessian":[1.0727E4,6.767E3,3.96E3,4.965E3,1.802E3,3.277E3,6.83E2,3.896E3,1.069E3,1.102E3,7E2,1.73E2,3.104E3,1.3E2,5.53E2],"tree_param":{"num_deleted":"0","num_feature":"22","num_nodes":"15","size_leaf_vector":"0"}},{"base_weights":[1.4547847E-1,-2.1860907E0,2.1714306E-1,-1.7874539E0,-1.3221666E1,4.434146E0,1.6918752E-1,4.9300486E-1,-3.9284654E0,-1.7208818E1,-1.9419441E0,6.311562E0,2.988485E0,5.678564E-1,-3.149284E-1],"categories":[],"categories_nodes":[],"categories_segments":[],"categories_sizes":[],"default_left":[1,1,1,1,1,1,1,0,0,0,0,0,0,0,0],"id":57,"left_children":[1,3,5,7,9,11,13,-1,-1,-1,-1,-1,-1,-1,-1],"loss_changes":[1.7930262E3,1.3841067E3,2.1042483E3,1.5155082E3,4.6129517E2,2.9868872E2,1.9867478E3,0E0,0E0,0E0,0E0,0E0,0E0,0E0,0E0],"parents":[2147483647,0,0,1,1,2,2,3,3,4,4,5,5,6,6],"right_children":[2,4,6,8,10,12,14,-1,-1,-1,-1,-1,-1,-1,-1],"split_conditions":[2.5E0,7.5E0,1.9535E3,1.5E0,2.02E3,1.9415E3,8.6984754E-1,4.9300488E-2,-3.9284655E-1,-1.7208818E0,-1.9419442E-1,6.311562E-1,2.988485E-1,5.678564E-2,-3.149284E-2],"split_indices":[5,21,2,5,2,2,15,0,0,0,0,0,0,0,0],"split_type":[0,0,0,0,0,0,0,0,0,0,0,0,0,0,0],"sum_hessian":[1.0727E4,3.19E2,1.0408E4,3.09E2,1E1,1.16E2,1.0292E4,1.5E2,1.59E2,7E0,3E0,4.9E1,6.7E1,5.644E3,4.648E3],"tree_param":{"num_deleted":"0","num_feature":"22","num_nodes":"15","size_leaf_vector":"0"}},{"base_weights":[1.3080968E-1,-2.0552058E-2,1.2382303E0,7.1453315E-1,-3.336819E-1,9.522318E0,1.1135166E0,1.2677234E0,-3.0931124E-1,-7.7420473E-1,3.1180993E-1,1.085529E1,-1.2052969E0,-3.6775398E0,1.3044057E0],"categories":[],"categories_nodes":[],"categories_segments":[],"categories_sizes":[],"default_left":[1,1,1,1,1,1,1,0,0,0,0,0,0,0,0],"id":58,"left_children":[1,3,5,7,9,11,13,-1,-1,-1,-1,-1,-1,-1,-1],"loss_changes":[1.7982649E3,2.1728804E3,1.3221469E3,1.5975857E3,1.8826641E3,2.847766E2,1.168118E3,0E0,0E0,0E0,0E0,0E0,0E0,0E0,0E0],"parents":[2147483647,0,0,1,1,2,2,3,3,4,4,5,5,6,6],"right_children":[2,4,6,8,10,12,14,-1,-1,-1,-1,-1,-1,-1,-1],"split_conditions":[6.6306043E0,8.0402267E-1,8.875E-1,1.95E1,1.15E1,2.65E1,7.75E1,1.2677234E-1,-3.0931124E-2,-7.742047E-2,3.1180993E-2,1.0855291E0,-1.2052969E-1,-3.6775398E-1,1.3044058E-1],"split_indices":[9,15,14,11,0,11,7,0,0,0,0,0,0,0,0],"split_type":[0,0,0,0,0,0,0,0,0,0,0,0,0,0,0],"sum_hessian":[1.0727E4,9.438E3,1.289E3,2.819E3,6.619E3,1.8E1,1.271E3,1.83E3,9.89E2,3.934E3,2.685E3,1.6E1,2E0,4.8E1,1.223E3],"tree_param":{"num_deleted":"0","num_feature":"22","num_nodes":"15","size_leaf_vector":"0"}},{"base_weights":[1.1780099E-1,8.934306E-2,5.638566E0,-6.919003E-1,2.8935438E-1,6.517311E0,-7.194763E0,2.0617044E0,-1.0880095E0,2.6012847E-1,7.1526585E0,4.291748E0,9.863626E0],"categories":[],"categories_nodes":[],"categories_segments":[],"categories_sizes":[],"default_left":[1,1,1,1,1,1,0,0,0,0,0,0,0],"id":59,"left_children":[1,3,5,7,9,11,-1,-1,-1,-1,-1,-1,-1],"loss_changes":[1.684967E3,1.6680931E3,6.671378E2,2.3756675E3,1.7029238E3,3.4493457E2,0E0,0E0,0E0,0E0,0E0,0E0,0E0],"parents":[2147483647,0,0,1,1,2,2,3,3,4,4,5,5],"right_children":[2,4,6,8,10,12,-1,-1,-1,-1,-1,-1,-1],"split_conditions":[5.1E1,1.25E1,7.5E0,1.9885E3,8.75E0,9E0,-7.1947634E-1,2.0617044E-1,-1.0880095E-1,2.6012847E-2,7.1526587E-1,4.291748E-1,9.863626E-1],"split_indices":[6,5,13,2,1,0,0,0,0,0,0,0,0],"split_type":[0,0,0,0,0,0,0,0,0,0,0,0,0],"sum_hessian":[1.0727E4,1.0673E4,5.4E1,2.175E3,8.498E3,5.1E1,3E0,2.73E2,1.902E3,8.463E3,3.5E1,3.2E1,1.9E1],"tree_param":{"num_deleted":"0","num_feature":"22","num_nodes":"13","size_leaf_vector":"0"}},{"base_weights":[1.0616373E-1,1.8647195E-1,-1.7631503E0,-1.41838E-1,9.025239E-1,-2.1077116E0,4.910644E0,1.9497426E-1,-1.2690237E0,3.2836193E-1,2.0569572E0,-3.4034562E0,2.559564E-1,-2.8714824E0,1.0519153E1],"categories":[],"categories_nodes":[],"categories_segments":[],"categories_sizes":[],"default_left":[1,1,1,1,1,1,1,0,0,0,0,0,0,0,0],"id":60,"left_children":[1,3,5,7,9,11,13,-1,-1,-1,-1,-1,-1,-1,-1],"loss_changes":[1.6108298E3,2.4184678E3,1.0267432E3,2.678298E3,2.1429226E3,1.2902722E3,9.904203E2,0E0,0E0,0E0,0E0,0E0,0E0,0E0,0E0],"parents":[2147483647,0,0,1,1,2,2,3,3,4,4,5,5,6,6],"right_children":[2,4,6,8,10,12,14,-1,-1,-1,-1,-1,-1,-1,-1],"split_conditions":[1.15E1,-5E-1,3.6666667E-1,6.8166666E0,6.130252E0,7.25E0,1.05E1,1.9497426E-2,-1.2690237E-1,3.2836195E-2,2.0569573E-1,-3.4034562E-1,2.559564E-2,-2.8714824E-1,1.0519153E0],"split_indices":[20,20,18,8,8,1,0,0,0,0,0,0,0,0,0],"split_type":[0,0,0,0,0,0,0,0,0,0,0,0,0,0,0],"sum_hessian":[1.0727E4,1.0286E4,4.41E2,7.053E3,3.233E3,4.2E2,2.1E1,5.431E3,1.622E3,2.16E3,1.073E3,2.71E2,1.49E2,9E0,1.2E1],"tree_param":{"num_deleted":"0","num_feature":"22","num_nodes":"15","size_leaf_vector":"0"}},{"base_weights":[9.560109E-2,3.5802433E-1,-4.5106608E-1,-5.528815E-1,5.979915E-1,-1.835842E0,9.032808E-1,-4.2385742E-1,-7.9108024E0,3.0446163E-1,1.7586672E0,-1.5860349E0,-6.685225E0,3.0011003E0,-2.4027117E-1],"categories":[],"categories_nodes":[],"categories_segments":[],"categories_sizes":[],"default_left":[1,1,1,1,1,1,1,0,0,0,0,0,0,0,0],"id":61,"left_children":[1,3,5,7,9,11,13,-1,-1,-1,-1,-1,-1,-1,-1],"loss_changes":[1.5391808E3,1.5848713E3,6.528283E3,1.4320627E3,1.9543608E3,2.074234E3,4.2229004E3,0E0,0E0,0E0,0E0,0E0,0E0,0E0,0E0],"parents":[2147483647,0,0,1,1,2,2,3,3,4,4,5,5,6,6],"right_children":[2,4,6,8,10,12,14,-1,-1,-1,-1,-1,-1,-1,-1],"split_conditions":[-5E-1,5.698912E0,1.5E0,5.6937857E0,1.7424244E-1,2.85E1,3.5E0,-4.2385742E-2,-7.9108024E-1,3.0446162E-2,1.7586672E-1,-1.5860349E-1,-6.6852254E-1,3.0011004E-1,-2.4027117E-2],"split_indices":[21,9,21,9,18,6,21,0,0,0,0,0,0,0,0],"split_type":[0,0,0,0,0,0,0,0,0,0,0,0,0,0,0],"sum_hessian":[1.0727E4,7.248E3,3.479E3,1.511E3,5.737E3,1.72E3,1.759E3,1.486E3,2.5E1,4.58E3,1.157E3,1.637E3,8.3E1,6.2E2,1.139E3],"tree_param":{"num_deleted":"0","num_feature":"22","num_nodes":"15","size_leaf_vector":"0"}},{"base_weights":[8.593129E-2,-4.6181887E-2,1.1767313E0,-7.8890216E-1,2.4088517E-1,4.8005247E0,9.358399E-1,1.834976E-1,-3.1090736E0,-3.2626954E-1,6.5972775E-1,-4.9697547E0,5.6038256E0,1.1718271E0,-2.9882672E0],"categories":[],"categories_nodes":[],"categories_segments":[],"categories_sizes":[],"default_left":[1,1,1,1,1,1,1,0,0,0,0,0,0,0,0],"id":62,"left_children":[1,3,5,7,9,11,13,-1,-1,-1,-1,-1,-1,-1,-1],"loss_changes":[1.5460563E3,2.0406149E3,1.0072456E3,6.0199365E3,1.6400128E3,5.929397E2,1.011032E3,0E0,0E0,0E0,0E0,0E0,0E0,0E0,0E0],"parents":[2147483647,0,0,1,1,2,2,3,3,4,4,5,5,6,6],"right_children":[2,4,6,8,10,12,14,-1,-1,-1,-1,-1,-1,-1,-1],"split_conditions":[2.0195E3,4.95E0,7.326584E-1,6E-1,2.0055E3,4.945E2,4.95E1,1.834976E-2,-3.1090736E-1,-3.2626953E-2,6.5972775E-2,-4.9697548E-1,5.6038254E-1,1.1718271E-1,-2.9882672E-1],"split_indices":[2,1,15,1,2,7,17,0,0,0,0,0,0,0,0],"split_type":[0,0,0,0,0,0,0,0,0,0,0,0,0,0,0],"sum_hessian":[1.0727E4,9.569E3,1.158E3,2.667E3,6.902E3,7.1E1,1.087E3,1.88E3,7.87E2,2.932E3,3.97E3,5E0,6.6E1,1.026E3,6.1E1],"tree_param":{"num_deleted":"0","num_feature":"22","num_nodes":"15","size_leaf_vector":"0"}},{"base_weights":[7.730355E-2,1.796748E-2,2.3496137E0,-9.125936E-1,1.6097869E-1,3.4710295E0,3.0834367E-2,2.7580693E0,-1.2607771E0,1.7469248E-2,1.3353539E0,2.8790537E-1,5.7589984E0,2.7867975E0,-4.8139143E0],"categories":[],"categories_nodes":[],"categories_segments":[],"categories_sizes":[],"default_left":[1,1,1,1,1,1,1,0,0,0,0,0,0,0,0],"id":63,"left_children":[1,3,5,7,9,11,13,-1,-1,-1,-1,-1,-1,-1,-1],"loss_changes":[1.4464136E3,1.3916384E3,7.097792E2,1.783821E3,1.5275684E3,1.3383931E3,1.2150908E3,0E0,0E0,0E0,0E0,0E0,0E0,0E0,0E0],"parents":[2147483647,0,0,1,1,2,2,3,3,4,4,5,5,6,6],"right_children":[2,4,6,8,10,12,14,-1,-1,-1,-1,-1,-1,-1,-1],"split_conditions":[1.55E1,2.5E0,8.5E0,1.5E0,8.05E0,1.991E3,8.554007E-1,2.7580693E-1,-1.2607771E-1,1.7469248E-3,1.3353539E-1,2.8790537E-2,5.7589984E-1,2.7867976E-1,-4.8139143E-1],"split_indices":[0,3,11,0,1,2,15,0,0,0,0,0,0,0,0],"split_type":[0,0,0,0,0,0,0,0,0,0,0,0,0,0,0],"sum_hessian":[1.0727E4,1.0455E4,2.72E2,1.392E3,9.063E3,1.83E2,8.9E1,1.2E2,1.272E3,8.077E3,9.86E2,7.7E1,1.06E2,5.7E1,3.2E1],"tree_param":{"num_deleted":"0","num_feature":"22","num_nodes":"15","size_leaf_vector":"0"}},{"base_weights":[6.963705E-2,-1.0667227E-1,8.223813E-1,7.945165E-1,-3.257049E-1,9.478822E-1,-3.715165E0,5.967468E-1,6.2850804E0,-6.121588E-1,5.0245214E-1,-4.713113E0,1.052067E0,2.9943198E-1,-7.324784E0],"categories":[],"categories_nodes":[],"categories_segments":[],"categories_sizes":[],"default_left":[1,1,1,1,1,1,1,0,0,0,0,0,0,0,0],"id":64,"left_children":[1,3,5,7,9,11,13,-1,-1,-1,-1,-1,-1,-1,-1],"loss_changes":[1.4238633E3,1.716168E3,1.162954E3,1.8422234E3,1.6594855E3,1.1739219E3,7.9920746E2,0E0,0E0,0E0,0E0,0E0,0E0,0E0,0E0],"parents":[2147483647,0,0,1,1,2,2,3,3,4,4,5,5,6,6],"right_children":[2,4,6,8,10,12,14,-1,-1,-1,-1,-1,-1,-1,-1],"split_conditions":[6.463189E0,7.731526E-1,4.2383292E-1,5.05E1,2.0155E3,6.8E1,6.166667E0,5.967468E-2,6.2850803E-1,-6.1215878E-2,5.0245214E-2,-4.713113E-1,1.05206706E-1,2.9943198E-2,-7.324784E-1],"split_indices":[9,15,19,5,2,7,8,0,0,0,0,0,0,0,0],"split_type":[0,0,0,0,0,0,0,0,0,0,0,0,0,0,0],"sum_hessian":[1.0727E4,8.692E3,2.035E3,1.699E3,6.993E3,1.981E3,5.4E1,1.641E3,5.8E1,5.196E3,1.797E3,3.5E1,1.946E3,2.6E1,2.8E1],"tree_param":{"num_deleted":"0","num_feature":"22","num_nodes":"15","size_leaf_vector":"0"}},{"base_weights":[6.263652E-2,-2.154338E-1,5.3774816E-1,2.8067976E-1,-1.5817591E0,1.7884997E0,6.885526E-2,-7.1800336E-2,1.4054047E0,-4.32126E0,-1.1027434E0,2.0371234E0,-1.0260643E1,-2.22286E0,4.6289054E-1],"categories":[],"categories_nodes":[],"categories_segments":[],"categories_sizes":[],"default_left":[1,1,1,1,1,1,1,0,0,0,0,0,0,0,0],"id":65,"left_children":[1,3,5,7,9,11,13,-1,-1,-1,-1,-1,-1,-1,-1],"loss_changes":[1.4174397E3,4.5881494E3,2.322879E3,1.9688376E3,2.361247E3,3.256263E3,2.603523E3,0E0,0E0,0E0,0E0,0E0,0E0,0E0,0E0],"parents":[2147483647,0,0,1,1,2,2,3,3,4,4,5,5,6,6],"right_children":[2,4,6,8,10,12,14,-1,-1,-1,-1,-1,-1,-1,-1],"split_conditions":[1.15E1,1.05E1,1.9985E3,7.3500004E0,9.5E0,3.35E1,4.45E0,-7.1800337E-3,1.4054047E-1,-4.3212602E-1,-1.1027434E-1,2.0371234E-1,-1.0260643E0,-2.2228602E-1,4.6289053E-2],"split_indices":[0,0,2,1,5,6,1,0,0,0,0,0,0,0,0],"split_type":[0,0,0,0,0,0,0,0,0,0,0,0,0,0,0],"sum_hessian":[1.0727E4,6.767E3,3.96E3,4.965E3,1.802E3,1.079E3,2.881E3,3.781E3,1.184E3,2.67E2,1.535E3,1.058E3,2.1E1,4.22E2,2.459E3],"tree_param":{"num_deleted":"0","num_feature":"22","num_nodes":"15","size_leaf_vector":"0"}},{"base_weights":[5.62418E-2,-1.3784584E-2,1.8643575E0,-2.2899704E0,5.5701315E-2,1.4273736E0,7.01983E0,-2.2406773E-1,-4.301114E0,3.758694E0,1.1968391E-2,9.505575E0,1.130044E0,1.3014538E1,2.5487235E0],"categories":[],"categories_nodes":[],"categories_segments":[],"categories_sizes":[],"default_left":[1,1,1,1,1,1,1,0,0,0,0,0,0,0,0],"id":66,"left_children":[1,3,5,7,9,11,13,-1,-1,-1,-1,-1,-1,-1,-1],"loss_changes":[1.3583599E3,1.6337915E3,8.911234E2,1.2704133E3,1.6232687E3,8.779569E2,7.977218E2,0E0,0E0,0E0,0E0,0E0,0E0,0E0,0E0],"parents":[2147483647,0,0,1,1,2,2,3,3,4,4,5,5,6,6],"right_children":[2,4,6,8,10,12,14,-1,-1,-1,-1,-1,-1,-1,-1],"split_conditions":[2.0215E3,2.5E0,2.95E1,1.5E0,1.9535E3,3.2916665E0,5.6904764E0,-2.2406774E-2,-4.301114E-1,3.758694E-1,1.1968391E-3,9.5055753E-1,1.130044E-1,1.3014538E0,2.5487235E-1],"split_indices":[2,5,6,5,2,8,8,0,0,0,0,0,0,0,0],"split_type":[0,0,0,0,0,0,0,0,0,0,0,0,0,0,0],"sum_hessian":[1.0727E4,1.0328E4,3.99E2,3.05E2,1.0023E4,3.69E2,3E1,1.51E2,1.54E2,1.16E2,9.907E3,1.2E1,3.57E2,1.2E1,1.8E1],"tree_param":{"num_deleted":"0","num_feature":"22","num_nodes":"15","size_leaf_vector":"0"}},{"base_weights":[5.0853882E-2,-1.128076E0,1.5410218E-1,-7.24773E-1,-4.3850775E0,5.4589152E-2,1.9533154E0,-1.5463332E0,8.5574144E-1,1.5176484E-1,-1.0113754E1,2.8589485E-2,6.5972996E0,2.2762835E0,-2.8525271E0],"categories":[],"categories_nodes":[],"categories_segments":[],"categories_sizes":[],"default_left":[1,1,1,1,1,1,1,0,0,0,0,0,0,0,0],"id":67,"left_children":[1,3,5,7,9,11,13,-1,-1,-1,-1,-1,-1,-1,-1],"loss_changes":[1.3060127E3,1.1317362E3,1.7661737E3,1.0011589E3,2.4705947E3,1.5901538E3,8.0894617E2,0E0,0E0,0E0,0E0,0E0,0E0,0E0,0E0],"parents":[2147483647,0,0,1,1,2,2,3,3,4,4,5,5,6,6],"right_children":[2,4,6,8,10,12,14,-1,-1,-1,-1,-1,-1,-1,-1],"split_conditions":[1.115E2,1.075E2,6.880678E0,-5E-1,9.7619045E-1,8.75E0,3.5828876E-1,-1.5463333E-1,8.557414E-2,1.5176484E-2,-1.0113754E0,2.8589487E-3,6.5972996E-1,2.2762835E-1,-2.8525272E-1],"split_indices":[7,7,9,20,15,1,18,0,0,0,0,0,0,0,0],"split_type":[0,0,0,0,0,0,0,0,0,0,0,0,0,0,0],"sum_hessian":[1.0727E4,8.63E2,9.864E3,7.69E2,9.4E1,9.348E3,5.16E2,5.06E2,2.63E2,5.3E1,4.1E1,9.312E3,3.6E1,4.84E2,3.2E1],"tree_param":{"num_deleted":"0","num_feature":"22","num_nodes":"15","size_leaf_vector":"0"}},{"base_weights":[4.5726083E-2,2.0979688E-2,4.847495E0,5.798091E-1,-1.9634561E-1,5.6490145E0,-6.784132E0,4.8579428E-1,6.2107873E0,-3.0369523E0,-1.098826E-1,1.0193289E1,4.0309E0],"categories":[],"categories_nodes":[],"categories_segments":[],"categories_sizes":[],"default_left":[1,1,1,1,1,1,0,0,0,0,0,0,0],"id":68,"left_children":[1,3,5,7,9,11,-1,-1,-1,-1,-1,-1,-1],"loss_changes":[1.2746688E3,1.2964475E3,5.510873E2,1.5793466E3,1.8874048E3,3.4127588E2,0E0,0E0,0E0,0E0,0E0,0E0,0E0],"parents":[2147483647,0,0,1,1,2,2,3,3,4,4,5,5],"right_children":[2,4,6,8,10,12,-1,-1,-1,-1,-1,-1,-1],"split_conditions":[5.1E1,4.95E0,7.5E0,4.8166666E0,2.5E0,2.0035E3,-6.784132E-1,4.857943E-2,6.210787E-1,-3.0369523E-1,-1.0988261E-2,1.019329E0,4.0309E-1],"split_indices":[6,8,13,8,5,2,0,0,0,0,0,0,0],"split_type":[0,0,0,0,0,0,0,0,0,0,0,0,0],"sum_hessian":[1.0727E4,1.0673E4,5.4E1,2.988E3,7.685E3,5.1E1,3E0,2.94E3,4.8E1,2.26E2,7.459E3,1.2E1,3.9E1],"tree_param":{"num_deleted":"0","num_feature":"22","num_nodes":"13","size_leaf_vector":"0"}},{"base_weights":[4.1256566E-2,1.1225783E-1,-1.6113029E0,-1.7464608E-1,7.3801786E-1,-1.9187373E0,4.3451147E0,-4.0264106E-1,1.3069011E0,2.0928876E-1,1.8011888E0,-3.0173721E0,8.6245246E-2,-2.7877269E0,9.497676E0],"categories":[],"categories_nodes":[],"categories_segments":[],"categories_sizes":[],"default_left":[1,1,1,1,1,1,1,0,0,0,0,0,0,0,0],"id":69,"left_children":[1,3,5,7,9,11,13,-1,-1,-1,-1,-1,-1,-1,-1],"loss_changes":[1.258938E3,1.846985E3,8.177311E2,2.3832637E3,1.8175497E3,9.27615E2,8.350298E2,0E0,0E0,0E0,0E0,0E0,0E0,0E0,0E0],"parents":[2147483647,0,0,1,1,2,2,3,3,4,4,5,5,6,6],"right_children":[2,4,6,8,10,12,14,-1,-1,-1,-1,-1,-1,-1,-1],"split_conditions":[1.15E1,-5E-1,3.6666667E-1,4.55E1,6.130252E0,7.25E0,1.05E1,-4.0264107E-2,1.3069011E-1,2.0928876E-2,1.8011889E-1,-3.0173722E-1,8.624525E-3,-2.7877268E-1,9.497676E-1],"split_indices":[20,20,18,5,8,1,0,0,0,0,0,0,0,0,0],"split_type":[0,0,0,0,0,0,0,0,0,0,0,0,0,0,0],"sum_hessian":[1.0727E4,1.0286E4,4.41E2,7.053E3,3.233E3,4.2E2,2.1E1,6.113E3,9.4E2,2.16E3,1.073E3,2.71E2,1.49E2,9E0,1.2E1],"tree_param":{"num_deleted":"0","num_feature":"22","num_nodes":"15","size_leaf_vector":"0"}},{"base_weights":[3.719284E-2,8.9587545E-1,-9.8602414E-2,1.9339117E0,-2.538139E-1,-2.8872046E-1,9.0960765E-1,3.1349182E0,5.42991E-1,1.1402885E-2,-9.218711E0,1.0258003E-1,-1.9336616E0,2.6373641E0,-1.6539214E-2],"categories":[],"categories_nodes":[],"categories_segments":[],"categories_sizes":[],"default_left":[1,1,1,1,1,1,1,0,0,0,0,0,0,0,0],"id":70,"left_children":[1,3,5,7,9,11,13,-1,-1,-1,-1,-1,-1,-1,-1],"loss_changes":[1.2510271E3,1.7488499E3,1.7759763E3,1.2845869E3,1.6549432E3,5.017577E3,2.3522734E3,0E0,0E0,0E0,0E0,0E0,0E0,0E0,0E0],"parents":[2147483647,0,0,1,1,2,2,3,3,4,4,5,5,6,6],"right_children":[2,4,6,8,10,12,14,-1,-1,-1,-1,-1,-1,-1,-1],"split_conditions":[7.6279926E-1,7.545E2,1.5E0,5.535714E0,4.722222E-1,-5E-1,3.5E0,3.1349182E-1,5.4299098E-2,1.1402885E-3,-9.218711E-1,1.0258003E-2,-1.9336616E-1,2.6373643E-1,-1.6539214E-3],"split_indices":[15,7,21,8,18,21,21,0,0,0,0,0,0,0,0],"split_type":[0,0,0,0,0,0,0,0,0,0,0,0,0,0,0],"sum_hessian":[1.0727E4,1.464E3,9.263E3,7.69E2,6.95E2,7.794E3,1.469E3,4.12E2,3.57E2,6.76E2,1.9E1,6.297E3,1.497E3,5.12E2,9.57E2],"tree_param":{"num_deleted":"0","num_feature":"22","num_nodes":"15","size_leaf_vector":"0"}},{"base_weights":[3.3429295E-2,-2.2480653E-1,4.7465792E-1,2.1678422E-1,-1.4409546E0,1.6080295E0,4.9773846E-2,8.03303E-2,2.716711E0,-2.974414E0,-6.208409E-1,1.832084E0,-9.250231E0,-1.7827045E0,4.530066E-1],"categories":[],"categories_nodes":[],"categories_segments":[],"categories_sizes":[],"default_left":[1,1,1,1,1,1,1,0,0,0,0,0,0,0,0],"id":71,"left_children":[1,3,5,7,9,11,13,-1,-1,-1,-1,-1,-1,-1,-1],"loss_changes":[1.2224662E3,3.634997E3,1.9073453E3,1.6938076E3,2.2656262E3,2.6444167E3,2.1303616E3,0E0,0E0,0E0,0E0,0E0,0E0,0E0,0E0],"parents":[2147483647,0,0,1,1,2,2,3,3,4,4,5,5,6,6],"right_children":[2,4,6,8,10,12,14,-1,-1,-1,-1,-1,-1,-1,-1],"split_conditions":[1.15E1,1.05E1,1.9985E3,8.25E0,2.0045E3,3.35E1,4.8500004E0,8.03303E-3,2.7167112E-1,-2.9744142E-1,-6.208409E-2,1.8320839E-1,-9.250231E-1,-1.7827044E-1,4.530066E-2],"split_indices":[0,0,2,1,2,6,1,0,0,0,0,0,0,0,0],"split_type":[0,0,0,0,0,0,0,0,0,0,0,0,0,0,0],"sum_hessian":[1.0727E4,6.767E3,3.96E3,4.965E3,1.802E3,1.079E3,2.881E3,4.709E3,2.56E2,6.27E2,1.175E3,1.058E3,2.1E1,5.19E2,2.362E3],"tree_param":{"num_deleted":"0","num_feature":"22","num_nodes":"15","size_leaf_vector":"0"}},{"base_weights":[2.9997278E-2,1.3482322E0,-5.2240364E-2,1.6275069E0,-6.092954E0,-2.8527662E-1,5.2944076E-1,1.8924413E0,-4.6264625E0,-1.5435161E1,1.0152618E0,-3.9768178E-2,-1.1427723E0,1.9385567E-1,1.9216834E0],"categories":[],"categories_nodes":[],"categories_segments":[],"categories_sizes":[],"default_left":[1,1,1,1,1,1,1,0,0,0,0,0,0,0,0],"id":72,"left_children":[1,3,5,7,9,11,13,-1,-1,-1,-1,-1,-1,-1,-1],"loss_changes":[1.1630771E3,1.3191417E3,1.3690986E3,1.0161454E3,1.5430186E3,1.5180317E3,1.3494141E3,0E0,0E0,0E0,0E0,0E0,0E0,0E0,0E0],"parents":[2147483647,0,0,1,1,2,2,3,3,4,4,5,5,6,6],"right_children":[2,4,6,8,10,12,14,-1,-1,-1,-1,-1,-1,-1,-1],"split_conditions":[5.5E0,7.0488095E0,6.3096914E0,2.85E1,4.5E0,9.17517E-1,2.85E1,1.8924414E-1,-4.6264625E-1,-1.543516E0,1.0152618E-1,-3.9768177E-3,-1.14277236E-1,1.9385567E-2,1.9216834E-1],"split_indices":[6,9,9,11,11,15,17,0,0,0,0,0,0,0,0],"split_type":[0,0,0,0,0,0,0,0,0,0,0,0,0,0,0],"sum_hessian":[1.0727E4,6.29E2,1.0098E4,6.07E2,2.2E1,7.21E3,2.888E3,5.83E2,2.4E1,9E0,1.3E1,5.606E3,1.604E3,2.328E3,5.6E2],"tree_param":{"num_deleted":"0","num_feature":"22","num_nodes":"15","size_leaf_vector":"0"}},{"base_weights":[2.6845211E-2,2.3171175E0,-1.9768685E-2,3.1584852E0,-9.928027E0,6.5214E-1,-1.9660138E-1,7.2480807E0,1.4490821E0,-1.6150267E1,4.502057E0,8.1305057E-1,-7.2180424E0,-2.5433075E0,-6.501325E-2],"categories":[],"categories_nodes":[],"categories_segments":[],"categories_sizes":[],"default_left":[1,1,1,1,1,1,1,0,0,0,0,0,0,0,0],"id":73,"left_children":[1,3,5,7,9,11,13,-1,-1,-1,-1,-1,-1,-1,-1],"loss_changes":[1.1453511E3,2.236129E3,1.2494724E3,1.3946415E3,1.3297334E3,2.7805413E3,2.5705837E3,0E0,0E0,0E0,0E0,0E0,0E0,0E0,0E0],"parents":[2147483647,0,0,1,1,2,2,3,3,4,4,5,5,6,6],"right_children":[2,4,6,8,10,12,14,-1,-1,-1,-1,-1,-1,-1,-1],"split_conditions":[6.970563E-1,7.5E0,1.9985E3,4.1192633E-1,6.1768055E0,3.55E1,2.0005E3,7.248081E-1,1.4490822E-1,-1.6150267E0,4.502057E-1,8.130506E-2,-7.2180426E-1,-2.5433075E-1,-6.5013254E-3],"split_indices":[15,21,2,19,9,6,2,0,0,0,0,0,0,0,0],"split_type":[0,0,0,0,0,0,0,0,0,0,0,0,0,0,0],"sum_hessian":[1.0727E4,2.13E2,1.0514E4,2E2,1.3E1,2.19E3,8.324E3,5.8E1,1.42E2,9E0,4E0,2.147E3,4.3E1,4.41E2,7.883E3],"tree_param":{"num_deleted":"0","num_feature":"22","num_nodes":"15","size_leaf_vector":"0"}},{"base_weights":[2.4048077E-2,-6.529588E-2,1.1795708E0,9.081635E-3,-1.7758214E0,3.5159643E0,6.502425E-1,7.124076E-1,-1.900062E-1,-1.9365625E0,9.504125E0,-5.1104484E0,4.208196E0,-9.832542E-1,1.7739916E0],"categories":[],"categories_nodes":[],"categories_segments":[],"categories_sizes":[],"default_left":[1,1,1,1,1,1,1,0,0,0,0,0,0,0,0],"id":74,"left_children":[1,3,5,7,9,11,13,-1,-1,-1,-1,-1,-1,-1,-1],"loss_changes":[1.1076246E3,1.2670464E3,9.499874E2,1.336661E3,7.7086316E2,8.694552E2,1.1563622E3,0E0,0E0,0E0,0E0,0E0,0E0,0E0,0E0],"parents":[2147483647,0,0,1,1,2,2,3,3,4,4,5,5,6,6],"right_children":[2,4,6,8,10,12,14,-1,-1,-1,-1,-1,-1,-1,-1],"split_conditions":[2.0205E3,1.15E1,1.25E1,1.9985E3,1.15E1,8.45E1,2.5E0,7.124076E-2,-1.900062E-2,-1.9365625E-1,9.5041245E-1,-5.1104486E-1,4.208196E-1,-9.8325424E-2,1.7739916E-1],"split_indices":[2,20,17,2,21,7,13,0,0,0,0,0,0,0,0],"split_type":[0,0,0,0,0,0,0,0,0,0,0,0,0,0,0],"sum_hessian":[1.0727E4,9.958E3,7.69E2,9.544E3,4.14E2,1.41E2,6.28E2,2.105E3,7.439E3,4.09E2,5E0,1E1,1.31E2,2.56E2,3.72E2],"tree_param":{"num_deleted":"0","num_feature":"22","num_nodes":"15","size_leaf_vector":"0"}},{"base_weights":[2.1717232E-2,-1.4894382E-2,2.77081E0,-3.7218764E-1,2.7410433E-1,5.7866726E0,1.0501525E0,-4.8622674E-1,2.2996569E0,3.2142613E0,1.5492362E-1,-3.233745E0,8.6451025E0,-1.0969251E1,2.6694522E0],"categories":[],"categories_nodes":[],"categories_segments":[],"categories_sizes":[],"default_left":[1,1,1,1,1,1,1,0,0,0,0,0,0,0,0],"id":75,"left_children":[1,3,5,7,9,11,13,-1,-1,-1,-1,-1,-1,-1,-1],"loss_changes":[1.0798007E3,1.0933901E3,7.2560974E2,1.4438479E3,2.050802E3,1.3429518E3,1.8004163E3,0E0,0E0,0E0,0E0,0E0,0E0,0E0,0E0],"parents":[2147483647,0,0,1,1,2,2,3,3,4,4,5,5,6,6],"right_children":[2,4,6,8,10,12,14,-1,-1,-1,-1,-1,-1,-1,-1],"split_conditions":[4.35E1,5.9899473E0,6.041769E0,5.05E1,7.326157E-1,1.5E0,6.1258583E0,-4.8622675E-2,2.2996569E-1,3.2142612E-1,1.5492362E-2,-3.233745E-1,8.6451024E-1,-1.0969251E0,2.669452E-1],"split_indices":[6,9,9,5,15,13,9,0,0,0,0,0,0,0,0],"split_type":[0,0,0,0,0,0,0,0,0,0,0,0,0,0,0],"sum_hessian":[1.0727E4,1.0587E4,1.4E2,4.734E3,5.853E3,5E1,9E1,4.541E3,1.93E2,2.27E2,5.626E3,1.2E1,3.8E1,1E1,8E1],"tree_param":{"num_deleted":"0","num_feature":"22","num_nodes":"15","size_leaf_vector":"0"}},{"base_weights":[1.9566473E-2,5.185192E-1,-1.7320886E-1,4.2958996E-1,5.9601936E0,-2.5700765E0,-9.945076E-2,1.3560143E0,-7.8926705E-2,1.0201124E1,2.1800995E-2,-1.9110262E0,-8.744188E0,1.07211016E-1,-1.0640572E0],"categories":[],"categories_nodes":[],"categories_segments":[],"categories_sizes":[],"default_left":[1,1,1,1,1,1,1,0,0,0,0,0,0,0,0],"id":76,"left_children":[1,3,5,7,9,11,13,-1,-1,-1,-1,-1,-1,-1,-1],"loss_changes":[1.031971E3,1.4443733E3,1.36791E3,1.3865608E3,1.2086244E3,9.2324E2,1.4970128E3,0E0,0E0,0E0,0E0,0E0,0E0,0E0,0E0],"parents":[2147483647,0,0,1,1,2,2,3,3,4,4,5,5,6,6],"right_children":[2,4,6,8,10,12,14,-1,-1,-1,-1,-1,-1,-1,-1],"split_conditions":[4.8944445E0,4.809091E0,2.5E0,8.5E0,3.7E2,7.695E2,9.466572E-1,1.3560143E-1,-7.892671E-3,1.0201124E0,2.1800995E-3,-1.9110262E-1,-8.7441885E-1,1.0721101E-2,-1.0640573E-1],"split_indices":[8,8,5,0,7,7,15,0,0,0,0,0,0,0,0],"split_type":[0,0,0,0,0,0,0,0,0,0,0,0,0,0,0],"sum_hessian":[1.0727E4,2.989E3,7.738E3,2.942E3,4.7E1,2.3E2,7.508E3,1.042E3,1.9E3,2.7E1,2E1,2.09E2,2.1E1,6.184E3,1.324E3],"tree_param":{"num_deleted":"0","num_feature":"22","num_nodes":"15","size_leaf_vector":"0"}},{"base_weights":[1.7609932E-2,-2.2550072E-1,4.329988E-1,3.209436E-1,-9.677867E-1,1.508088E-1,1.7847325E0,1.2542474E0,-2.79667E-2,-1.4538372E0,3.2958362E-1,3.853341E-1,-2.2219856E0,-9.147848E-1,2.4198444E0],"categories":[],"categories_nodes":[],"categories_segments":[],"categories_sizes":[],"default_left":[1,1,1,1,1,1,1,0,0,0,0,0,0,0,0],"id":77,"left_children":[1,3,5,7,9,11,13,-1,-1,-1,-1,-1,-1,-1,-1],"loss_changes":[1.0834696E3,2.745533E3,1.5106373E3,1.2697026E3,1.8102654E3,1.8249987E3,1.1749287E3,0E0,0E0,0E0,0E0,0E0,0E0,0E0,0E0],"parents":[2147483647,0,0,1,1,2,2,3,3,4,4,5,5,6,6],"right_children":[2,4,6,8,10,12,14,-1,-1,-1,-1,-1,-1,-1,-1],"split_conditions":[1.15E1,8.5E0,1.05E1,4.8944445E0,7.45E0,3.5E0,5.675649E0,1.2542474E-1,-2.7966702E-3,-1.4538372E-1,3.2958362E-2,3.8533412E-2,-2.2219856E-1,-9.147848E-2,2.4198444E-1],"split_indices":[0,0,3,8,1,21,9,0,0,0,0,0,0,0,0],"split_type":[0,0,0,0,0,0,0,0,0,0,0,0,0,0,0],"sum_hessian":[1.0727E4,6.767E3,3.96E3,3.898E3,2.869E3,3.277E3,6.83E2,1.06E3,2.838E3,2.087E3,7.82E2,2.983E3,2.94E2,1.3E2,5.53E2],"tree_param":{"num_deleted":"0","num_feature":"22","num_nodes":"15","size_leaf_vector":"0"}},{"base_weights":[1.5846923E-2,-3.248988E-2,1.8671062E0,-5.316499E-1,1.5434678E-1,7.751396E0,1.4460737E0,-2.836428E-1,-3.9801903E0,1.4175875E0,-2.8909072E-2,1.6124199E1,3.2907643E0,2.7515264E0,-1.7411058E0],"categories":[],"categories_nodes":[],"categories_segments":[],"categories_sizes":[],"default_left":[1,1,1,1,1,1,1,0,0,0,0,0,0,0,0],"id":78,"left_children":[1,3,5,7,9,11,13,-1,-1,-1,-1,-1,-1,-1,-1],"loss_changes":[9.6004456E2,9.7522314E2,6.651424E2,2.4346587E3,1.7614961E3,6.192029E2,1.0699329E3,0E0,0E0,0E0,0E0,0E0,0E0,0E0,0E0],"parents":[2147483647,0,0,1,1,2,2,3,3,4,4,5,5,6,6],"right_children":[2,4,6,8,10,12,14,-1,-1,-1,-1,-1,-1,-1,-1],"split_conditions":[1.55E1,5.7908792E0,7.6794875E-1,5.765069E0,1.9945E3,5.55E0,8.5E0,-2.836428E-2,-3.9801905E-1,1.4175875E-1,-2.8909072E-3,1.61242E0,3.2907644E-1,2.7515265E-1,-1.7411058E-1],"split_indices":[0,9,15,9,2,1,11,0,0,0,0,0,0,0,0],"split_type":[0,0,0,0,0,0,0,0,0,0,0,0,0,0,0],"sum_hessian":[1.0727E4,1.0455E4,2.72E2,2.847E3,7.608E3,1.7E1,2.55E2,2.657E3,1.9E2,9.63E2,6.645E3,5E0,1.2E1,1.81E2,7.4E1],"tree_param":{"num_deleted":"0","num_feature":"22","num_nodes":"15","size_leaf_vector":"0"}},{"base_weights":[1.4426534E-2,-1.8309191E-1,4.6201035E-1,-4.1525522E-1,6.591009E-1,3.9513007E-1,8.227507E0,-6.7678905E-1,9.0886843E-1,-1.3809123E1,7.309403E-1,6.7346483E-1,-6.5911686E-1,1.4819484E1,3.7419925E0],"categories":[],"categories_nodes":[],"categories_segments":[],"categories_sizes":[],"default_left":[1,1,1,1,1,1,1,0,0,0,0,0,0,0,0],"id":79,"left_children":[1,3,5,7,9,11,13,-1,-1,-1,-1,-1,-1,-1,-1],"loss_changes":[9.4850476E2,1.4557712E3,1.7028416E3,2.0216399E3,1.6824692E3,9.5645044E2,7.7246106E2,0E0,0E0,0E0,0E0,0E0,0E0,0E0,0E0],"parents":[2147483647,0,0,1,1,2,2,3,3,4,4,5,5,6,6],"right_children":[2,4,6,8,10,12,14,-1,-1,-1,-1,-1,-1,-1,-1],"split_conditions":[2.0145E3,1.7424244E-1,7.5E0,1.5E0,5.4E1,8.920244E-1,3.425E2,-6.7678906E-2,9.0886846E-2,-1.3809123E0,7.309403E-2,6.734648E-2,-6.591169E-2,1.4819484E0,3.7419924E-1],"split_indices":[2,18,10,21,7,15,7,0,0,0,0,0,0,0,0],"split_type":[0,0,0,0,0,0,0,0,0,0,0,0,0,0,0],"sum_hessian":[1.0727E4,7.443E3,3.284E3,5.835E3,1.608E3,3.257E3,2.7E1,4.873E3,9.62E2,7E0,1.601E3,2.577E3,6.8E2,1E1,1.7E1],"tree_param":{"num_deleted":"0","num_feature":"22","num_nodes":"15","size_leaf_vector":"0"}},{"base_weights":[1.3038308E-2,2.3272704E-1,-4.4458717E-1,2.0677125E-1,6.26957E0,-1.5096562E0,5.9713346E-1,1.1577778E0,6.2821E-2,6.955629E0,-7.156101E0,-1.7267228E0,2.906592E0,2.2405224E0,-2.986049E-1],"categories":[],"categories_nodes":[],"categories_segments":[],"categories_sizes":[],"default_left":[1,1,1,1,1,1,1,0,0,0,0,0,0,0,0],"id":80,"left_children":[1,3,5,7,9,11,13,-1,-1,-1,-1,-1,-1,-1,-1],"loss_changes":[1.0786447E3,1.1345569E3,3.861976E3,9.881913E2,3.3531018E2,1.6548047E3,2.5914712E3,0E0,0E0,0E0,0E0,0E0,0E0,0E0,0E0],"parents":[2147483647,0,0,1,1,2,2,3,3,4,4,5,5,6,6],"right_children":[2,4,6,8,10,12,14,-1,-1,-1,-1,-1,-1,-1,-1],"split_conditions":[-5E-1,8.75E0,1.5E0,7.6279926E-1,1.2E1,2.0215E3,3.5E0,1.1577778E-1,6.2821E-3,6.955629E-1,-7.1561015E-1,-1.7267229E-1,2.906592E-1,2.2405224E-1,-2.9860491E-2],"split_indices":[21,1,21,15,20,2,21,0,0,0,0,0,0,0,0],"split_type":[0,0,0,0,0,0,0,0,0,0,0,0,0,0,0],"sum_hessian":[1.0727E4,7.248E3,3.479E3,7.218E3,3E1,1.72E3,1.759E3,9.48E2,6.27E3,2.9E1,1E0,1.64E3,8E1,6.2E2,1.139E3],"tree_param":{"num_deleted":"0","num_feature":"22","num_nodes":"15","size_leaf_vector":"0"}},{"base_weights":[1.1773693E-2,-2.1511953E-1,3.9945397E-1,1.3203983E-1,-1.1711807E0,1.3145144E0,5.640586E-2,-1.3535377E-1,1.1057789E0,-1.9936721E0,1.2465263E-1,1.5107468E0,-8.191157E0,-1.5996665E-1,2.81025E0],"categories":[],"categories_nodes":[],"categories_segments":[],"categories_sizes":[],"default_left":[1,1,1,1,1,1,1,0,0,0,0,0,0,0,0],"id":81,"left_children":[1,3,5,7,9,11,13,-1,-1,-1,-1,-1,-1,-1,-1],"loss_changes":[9.437426E2,2.2464917E3,1.2433223E3,1.2931552E3,1.921907E3,2.0269226E3,1.717707E3,0E0,0E0,0E0,0E0,0E0,0E0,0E0,0E0],"parents":[2147483647,0,0,1,1,2,2,3,3,4,4,5,5,6,6],"right_children":[2,4,6,8,10,12,14,-1,-1,-1,-1,-1,-1,-1,-1],"split_conditions":[1.15E1,1.05E1,1.9985E3,7.45E0,2.0115E3,3.35E1,1.35E1,-1.3535378E-2,1.10577896E-1,-1.9936721E-1,1.2465264E-2,1.510747E-1,-8.1911576E-1,-1.5996665E-2,2.8102502E-1],"split_indices":[0,0,2,1,2,6,0,0,0,0,0,0,0,0,0],"split_type":[0,0,0,0,0,0,0,0,0,0,0,0,0,0,0],"sum_hessian":[1.0727E4,6.767E3,3.96E3,4.965E3,1.802E3,1.079E3,2.881E3,3.896E3,1.069E3,1.102E3,7E2,1.058E3,2.1E1,2.672E3,2.09E2],"tree_param":{"num_deleted":"0","num_feature":"22","num_nodes":"15","size_leaf_vector":"0"}},{"base_weights":[1.054953E-2,-4.651688E-1,1.8818136E-1,1.4852384E-1,-2.3106656E0,-4.2055908E-1,5.059753E-1,-2.5433707E0,4.0257958E-1,-5.504225E0,-1.014022E0,4.3968415E0,-6.5796494E-1,-3.3698175E0,5.6100315E-1],"categories":[],"categories_nodes":[],"categories_segments":[],"categories_sizes":[],"default_left":[1,1,1,1,1,1,1,0,0,0,0,0,0,0,0],"id":82,"left_children":[1,3,5,7,9,11,13,-1,-1,-1,-1,-1,-1,-1,-1],"loss_changes":[9.066327E2,3.3040437E3,1.5114756E3,1.4987457E3,3.009E3,3.0679524E3,1.0966395E3,0E0,0E0,0E0,0E0,0E0,0E0,0E0,0E0],"parents":[2147483647,0,0,1,1,2,2,3,3,4,4,5,5,6,6],"right_children":[2,4,6,8,10,12,14,-1,-1,-1,-1,-1,-1,-1,-1],"split_conditions":[4.6499996E0,1.45E0,2.0045E3,5.412779E0,3.35E0,5E-1,8.8E1,-2.5433707E-1,4.0257957E-2,-5.504225E-1,-1.014022E-1,4.3968415E-1,-6.5796494E-2,-3.3698174E-1,5.6100316E-2],"split_indices":[1,1,2,9,1,0,7,0,0,0,0,0,0,0,0],"split_type":[0,0,0,0,0,0,0,0,0,0,0,0,0,0,0],"sum_hessian":[1.0727E4,2.916E3,7.811E3,2.189E3,7.27E2,2.679E3,5.132E3,1.88E2,2.001E3,2.09E2,5.18E2,1.25E2,2.554E3,7.1E1,5.061E3],"tree_param":{"num_deleted":"0","num_feature":"22","num_nodes":"15","size_leaf_vector":"0"}},{"base_weights":[9.423121E-3,-6.2551916E-2,1.1809436E0,1.331776E0,-1.500573E-1,2.3533626E0,-4.1340095E-1,1.2243671E1,1.1627797E0,2.0922744E0,-1.9918026E-1,2.6778347E0,-4.7495956E0,-8.6443126E-1,8.361448E0],"categories":[],"categories_nodes":[],"categories_segments":[],"categories_sizes":[],"default_left":[1,1,1,1,1,1,1,0,0,0,0,0,0,0,0],"id":83,"left_children":[1,3,5,7,9,11,13,-1,-1,-1,-1,-1,-1,-1,-1],"loss_changes":[9.046613E2,1.233489E3,1.1617708E3,1.0866733E3,1.0481633E3,8.3780566E2,1.0520668E3,0E0,0E0,0E0,0E0,0E0,0E0,0E0,0E0],"parents":[2147483647,0,0,1,1,2,2,3,3,4,4,5,5,6,6],"right_children":[2,4,6,8,10,12,14,-1,-1,-1,-1,-1,-1,-1,-1],"split_conditions":[6.880678E0,5.5E0,9.574275E-1,3.5E0,1.9565E3,3.8484848E-1,3.75E1,1.2243671E0,1.1627797E-1,2.0922744E-1,-1.9918026E-2,2.677835E-1,-4.7495958E-1,-8.6443126E-2,8.3614486E-1],"split_indices":[9,6,15,17,2,19,6,0,0,0,0,0,0,0,0],"split_type":[0,0,0,0,0,0,0,0,0,0,0,0,0,0,0],"sum_hessian":[1.0727E4,1.0107E4,6.2E2,5.96E2,9.511E3,3.57E2,2.63E2,8E0,5.88E2,2.03E2,9.308E3,3.42E2,1.5E1,2.51E2,1.2E1],"tree_param":{"num_deleted":"0","num_feature":"22","num_nodes":"15","size_leaf_vector":"0"}},{"base_weights":[8.673543E-3,2.0567843E-1,-4.016992E-1,2.5604112E-2,9.099762E-1,-1.3453174E0,5.2123743E-1,1.03176616E-1,-4.714101E0,4.9359736E-1,3.595019E0,9.096231E0,-1.4362828E0,1.1447904E0,-1.3520231E0],"categories":[],"categories_nodes":[],"categories_segments":[],"categories_sizes":[],"default_left":[1,1,1,1,1,1,1,0,0,0,0,0,0,0,0],"id":84,"left_children":[1,3,5,7,9,11,13,-1,-1,-1,-1,-1,-1,-1,-1],"loss_changes":[8.673924E2,9.193379E2,3.0314324E3,2.1234177E3,1.6483861E3,1.6477041E3,2.0573635E3,0E0,0E0,0E0,0E0,0E0,0E0,0E0,0E0],"parents":[2147483647,0,0,1,1,2,2,3,3,4,4,5,5,6,6],"right_children":[2,4,6,8,10,12,14,-1,-1,-1,-1,-1,-1,-1,-1],"split_conditions":[-5E-1,1.7424244E-1,1.5E0,1.5476191E-1,7.95E0,6.720308E-1,7.5E0,1.0317662E-2,-4.714101E-1,4.9359735E-2,3.5950193E-1,9.0962315E-1,-1.4362828E-1,1.1447904E-1,-1.3520232E-1],"split_indices":[21,18,21,18,1,15,21,0,0,0,0,0,0,0,0],"split_type":[0,0,0,0,0,0,0,0,0,0,0,0,0,0,0],"sum_hessian":[1.0727E4,7.248E3,3.479E3,5.773E3,1.475E3,1.72E3,1.759E3,5.681E3,9.2E1,1.278E3,1.97E2,1.4E1,1.706E3,1.32E3,4.39E2],"tree_param":{"num_deleted":"0","num_feature":"22","num_nodes":"15","size_leaf_vector":"0"}},{"base_weights":[7.87073E-3,-2.1140517E-1,3.825366E-1,8.96884E-2,-1.0405895E0,1.3457794E-1,1.5702937E0,-2.1061389E-2,2.1190338E0,-3.3866055E0,-6.30581E-1,3.5266256E-1,-2.0718596E0,-8.596742E-1,2.1420546E0],"categories":[],"categories_nodes":[],"categories_segments":[],"categories_sizes":[],"default_left":[1,1,1,1,1,1,1,0,0,0,0,0,0,0,0],"id":85,"left_children":[1,3,5,7,9,11,13,-1,-1,-1,-1,-1,-1,-1,-1],"loss_changes":[8.814417E2,1.689806E3,1.1663611E3,1.116151E3,1.7321455E3,1.5780719E3,9.5216394E2,0E0,0E0,0E0,0E0,0E0,0E0,0E0,0E0],"parents":[2147483647,0,0,1,1,2,2,3,3,4,4,5,5,6,6],"right_children":[2,4,6,8,10,12,14,-1,-1,-1,-1,-1,-1,-1,-1],"split_conditions":[1.15E1,1.05E1,1.05E1,8.25E0,9.5E0,3.5E0,5.675649E0,-2.106139E-3,2.1190338E-1,-3.3866057E-1,-6.30581E-2,3.5266258E-2,-2.0718597E-1,-8.596742E-2,2.1420546E-1],"split_indices":[0,0,3,1,5,21,9,0,0,0,0,0,0,0,0],"split_type":[0,0,0,0,0,0,0,0,0,0,0,0,0,0,0],"sum_hessian":[1.0727E4,6.767E3,3.96E3,4.965E3,1.802E3,3.277E3,6.83E2,4.709E3,2.56E2,2.67E2,1.535E3,2.983E3,2.94E2,1.3E2,5.53E2],"tree_param":{"num_deleted":"0","num_feature":"22","num_nodes":"15","size_leaf_vector":"0"}},{"base_weights":[7.061365E-3,1.6376024E0,-3.9039526E-2,6.1813374E0,-2.4114829E-2,-6.0378186E-2,4.6780896E0,-2.2304623E-1,7.33172E0,7.187129E-1,-1.0846454E1,-8.8840224E-2,3.3501415E0,-1.8533401E0,7.2299113E0],"categories":[],"categories_nodes":[],"categories_segments":[],"categories_sizes":[],"default_left":[1,1,1,1,1,1,1,0,0,0,0,0,0,0,0],"id":86,"left_children":[1,3,5,7,9,11,13,-1,-1,-1,-1,-1,-1,-1,-1],"loss_changes":[8.064812E2,2.227518E3,1.0505399E3,5.83667E2,1.7522875E3,1.00866406E3,7.967506E2,0E0,0E0,0E0,0E0,0E0,0E0,0E0,0E0],"parents":[2147483647,0,0,1,1,2,2,3,3,4,4,5,5,6,6],"right_children":[2,4,6,8,10,12,14,-1,-1,-1,-1,-1,-1,-1,-1],"split_conditions":[7.0533556E-1,5.35E1,1.25E1,3.45E1,7.5E0,2.5E0,1.2E0,-2.2304622E-2,7.33172E-1,7.1871296E-2,-1.0846454E0,-8.884023E-3,3.3501416E-1,-1.8533401E-1,7.2299117E-1],"split_indices":[15,17,21,17,21,16,1,0,0,0,0,0,0,0,0],"split_type":[0,0,0,0,0,0,0,0,0,0,0,0,0,0,0],"sum_hessian":[1.0727E4,2.94E2,1.0433E4,7.8E1,2.16E2,1.0387E4,4.6E1,1.2E1,